  0.06267660  0.05497413  0.24756699 -0.11439970 -0.04075699 -0.12951049  0.29826022  0.16282256 -0.19924791 -0.13400734  0.30355606 -0.12373193  0.03164823  0.53500084 -0.05931480 -0.30605259  0.51118728 -0.35934459 -0.23922761  0.20635326  0.37725615  0.38219151  0.33207838 -0.01877615 -0.24602106 -0.11643747  0.28127390  0.04307216  0.10302520  0.24207838 -0.16028276 -0.12123660 -0.39492317 -0.12318646  0.34530051 -0.12504271  0.34086522  0.12451679 -0.33096230  0.01693747
 -0.16840574  0.27296655  0.01451584 -0.42851660  0.23321544 -0.23053909 -0.12747547  0.29733047  0.02125124 -0.03309966  0.13486378 -0.03346182 -0.07563377  0.45357934  0.07225995 -0.15500967  0.09802421  0.05259778 -0.02841977 -0.16065891 -0.47476281 -0.28330169 -0.15277031 -0.31288555 -0.30778950  0.14456556 -0.16011644 -0.04518539  0.47023783 -0.00604460 -0.07718270  0.36055249 -0.30112051 -0.10487830 -0.17151458  0.03686166  0.39434329  0.55617770  0.10276159  0.21802269
 -0.37046876 -0.03014376  0.06990340  0.48973362 -0.00781738  0.00175376 -0.22868020  0.45946316  0.01707086 -0.03185128  0.32235251 -0.19743395 -0.23448238  0.38303639 -0.03564645 -0.18314174  0.26214071  0.29639273 -0.07435773 -0.35935808 -0.15331885  0.39164581 -0.32338010  0.01169757  0.48673448 -0.02563687 -0.30592216 -0.11512681 -0.04429102 -0.01159255 -0.05466448 -0.22912873  0.29395366  0.00835859 -0.29829194  0.13740107 -0.24472183 -0.10922342  0.19946120 -0.09573576
  0.02162424 -0.02189558  0.00702054  0.32213845  0.07958202  0.02709990  0.03988142  0.12691820 -0.01458200 -0.15668251 -0.14904173 -0.01459267  0.28783336 -0.05489183 -0.05295097  0.01103177  0.04206004  0.00180483  0.00307231  0.01741714  0.39408134  0.21093367  0.03278585 -0.01078631 -0.32363503  0.04025031 -0.03518247 -0.43365824 -0.03963715  0.00999013  0.02479732 -0.47051221 -0.04594962  0.01251867 -0.01162356  0.19811951  0.35357010 -0.05224475 -0.01704761 -0.10867848
  0.09783584 -0.32104507  0.01103932 -0.13610518 -0.08683475  0.34522225  0.07473983  0.37508426 -0.03942422  0.02529487 -0.03582375  0.00668910  0.01199299 -0.18189299  0.58550455  0.19525483 -0.00457379  0.21078038  0.08467768  0.06324279 -0.02405639  0.58963766  0.10466529  0.32875256 -0.42854386 -0.18075820  0.03193958  0.00930676 -0.40049126  0.00889550  0.19197878  0.10742324  0.17509565  0.19046682  0.00848130 -0.02008694  0.35320446  0.36256040 -0.08196027  0.19441776
