 -0.65623159 -0.62100382  1.26962913  4.45754461 -0.81061329 -7.06257475 -4.36659400  1.13262998  0.81695338 -0.26532542  0.12142118  0.17592510  1.60939028  0.15117218  0.86001685  2.26271889  4.19808233 -6.08192206 -3.28830035 -6.97900686  2.28220329  4.83735637 -0.11442282 -2.07416169 -0.92618565  0.61643704  0.75458722  4.29128597  2.19700015 -4.94291320 -6.86445773  3.88124186  1.20713251  2.74364478  1.14311170 -2.66541078 -0.33361457  0.65642104 -1.11191628  1.83604647  0.58447328  1.06826596 -0.02957190  1.74183621 -2.10313409 -6.86408227  0.76075560  4.11141626  2.61749066  2.34946595  1.84638236 -0.22924855  1.50370772  1.65444727  1.99683726  0.73754153 -1.91250913 -3.19938333 -3.79630826  1.97473287  2.14851583 -3.60867637 -2.15000301  1.14180214  0.47278356 -0.18410514 -0.75295801 -0.64374843  0.08104307  0.74382486  0.44071099  0.99391795 -0.01643079 -4.30805933 -0.83695103 -0.70911896 -0.50116996  0.19545982  0.36035267  0.29896343  0.02849045  0.24376499  0.49732912  0.16971385  0.09362788  0.81554258  1.39739587  1.82723626  2.59584097  1.33827622  0.12861915 -0.74380482 -0.08059198  0.34541933 -0.32389130 -0.44523263 -0.97115369 -0.45329801  0.37358757 -0.75297303  2.71951789  0.41138946 -0.15326939 -0.44552845  1.83574191 -0.38797032  0.56464203 -0.39703741 -0.58557835 -1.50995976 -0.05969558  0.94371263  3.29731095  2.61637586  1.42971836  1.22100323  0.30454206  0.02813309 -0.30609747  0.05832286  0.23990828 -0.45576772 -0.20175784 -0.42453103  0.52217197 -1.48897150 -0.48277577 -0.90462086 -0.79792737 -0.85794961 -1.17740136 -0.87412456 -1.99714819 -0.54852100 -1.18899135 -0.49727123 -1.58671900 -1.64610143 -1.45228304 -2.75498699 -1.30214768  0.05779391 -0.87856199 -0.87334727  0.11175849 -0.28430697  1.04419063  0.66251281 -2.15698152 -2.00114267 -0.91408823  3.48756063  3.15029747  0.00393292 -6.23162675 -3.01678748  0.79976673  4.14215135  1.79300517 -0.95771757 -0.71292009  0.97514804 -2.35811576 -3.05317371 -0.63916785  3.93276099  5.47406836 -2.43701979 -5.06233259  0.91016411  3.05136033  3.30033678  1.38996454  1.57786640  1.49125665  2.60442072  1.27703340  1.16795782  0.43038701 -0.55639590  5.10699660 -1.15003623 -1.72101749  0.38381390 -5.63813946 -3.20218275  0.86199668 -0.26285466  4.88030811  0.34262728 -3.52884435 -4.31034486  0.88285301  1.86760468  1.10302161  1.23781985 -0.55959532  1.24289202  2.34580180  0.27999175 -1.02741143
 -1.37493542  1.14555179  0.12031173 -0.17805673 -0.51131165  0.00568212  1.03877737  0.97873398  0.67662405 -0.93882655 -1.17248534 -1.13241246 -0.11607778  0.55523119 -0.36291818 -0.78077066 -1.79296444 -1.18776383 -0.93428277 -1.52002647 -0.79502734 -1.50680697 -2.25979349 -2.05397094 -2.15985422 -2.23050392 -2.08042728 -0.78503606 -0.77992244 -1.44506084 -0.52524071  0.44072538  2.41037254  4.05338153  3.13148957  2.98881150  2.23611619 -0.04236245  3.28122044  2.75966866  3.46410717  1.02936946  1.17249542  1.10387200  0.63363210  1.23455473  1.45505952  0.63662377  0.21401086  1.68070096  1.25792406  0.98701616  0.88584798  0.96650518 -0.45529842 -1.88459493 -1.61093170 -2.01602702 -2.30102599 -1.23086033 -1.72064328 -2.08737624 -2.18994364 -2.25604592 -1.62084022 -2.24557526 -1.98653593 -1.50712575 -2.11952312 -1.79151973 -1.68464714 -1.58663414 -1.92440513 -2.03384887 -1.69010067 -1.58308021 -1.48713696 -1.42312626 -1.18361219  0.12789500  0.44121349  1.73008987  1.58833643  2.35432017  2.26603851  1.07742305 -1.32726332  3.13872158  2.26369751 -0.81002830 -0.91033618 -0.67622003 -1.22312499 -2.41883134 -3.35873681 -1.71503675  2.03244613  4.00150928  5.64277333  9.31163617 14.62392105  7.70965531  2.67662037 -0.18434673 -3.96895190 -6.72001180 -8.95950396 -8.42117257 -5.38352479 -3.83672895 -1.93913093 -2.10081203 -0.02996488  1.72437448 -1.41506960  0.23867097  0.61698729  1.47389820  1.13412274  0.87382472  0.62074831  0.65980549 -0.55901393  1.18847768  0.73726302 -1.54596325 -1.43259759 -1.70679700 -1.25041598 -1.66697169 -1.93631311 -1.64221450 -1.66827308 -2.80422933 -2.72546329 -2.03127712 -2.09808249 -2.12014741 -2.11837803 -2.11934295 -1.68534072 -1.45314224 -1.21391272  0.46233285 -0.80531798 -0.39240874  0.00662539  0.47381060  0.71072340  1.46614743  1.55382788  2.43890578  3.41404911  3.01682840  3.10503717  2.85165279  2.41756306  1.53788357  1.86086849  2.59509988  3.64422175  2.79150122  3.09580445  4.11507791  2.96326162  3.45950275  4.39996223  4.12370939  2.78264205  2.97770333  1.84733195  1.43550894  0.89740115  0.71279144 -0.23713474 -1.98237946 -1.69540457 -1.32935933 -2.15677186 -2.36232145 -2.22911208 -1.84798401 -2.34453870  1.60650949 -1.40665582 -1.01835454 -0.30843713  1.04114028  0.23534576  0.65353692 -0.00783732 -1.34500608 -0.95085020  1.50297735  1.25638441  0.47493916 -1.12482654 -0.25385287  0.57722332  0.41060880 -1.66090022
 -1.46000744 -0.64050885 -1.18108534 -0.98180803 -0.92882031 -2.11430922 -0.81262556 -2.36952721 -0.99113070 -1.84304549 -0.74803639 -1.49192235 -1.72698663 -1.00904570 -1.82198741 -2.28905594 -0.43077030 -1.10326383 -3.39379529  0.16219847 -4.54649877 -0.46034515 -1.73973860 -2.56907012 -2.58038927  0.47399600 -0.51737992 -0.09097142  0.73124274 -0.37487984 -0.93938307 -0.92990347  0.11602190  1.41034038  1.69976260  1.37896191  2.02108598  1.97764339  1.56305449  1.43186642  1.25281886  0.67186079  1.27147709  2.38800144  3.52469093  2.54764626  2.64067132  1.52068255  3.72995999  3.21565678  2.86085270  0.52501657 -0.38034022 -2.21982254 -0.71785349 -1.48756636 -2.95880361 -2.74716173 -2.16988504  0.03831249  2.00455167  0.73253375  1.62794125  0.79279747 -0.44288056 -2.01550905 -2.33206814 -3.63714759 -1.53693913  1.68549074 -1.01234256  0.59873660  1.76648217  0.57042274 -0.35517755 -0.27097405  0.37498800  0.74430371  0.98198197  1.02553551  1.47165373  1.43568183  1.47442624  1.60060062  2.46573567  2.08924775  2.43217552  1.87148082  2.42712747  1.26522152  1.29547494  0.05833241  1.31987856  0.72296346  0.85044507  0.05924767  2.99134198  1.18389416 -0.45361338  1.28218835 -2.24815448  1.29688627 -0.88065486 -0.26347225  0.52435093  1.45727961 -0.17189884  1.76628046  3.05450145  1.87919114  2.18978113  2.33674866  2.88006974  0.05910736 -0.37064288 -0.45123997 -0.45382633  0.15278566  0.17478665  0.78859898  1.04844487  0.80455867  0.68513060  0.31272819  0.52079086  0.30432526  0.89852250  0.14688007 -0.52137068 -0.96969288  1.12436537  1.57298656 -0.11953360 -1.52539891 -0.49957478 -0.35212521  1.22813984  2.04392309  0.14565883 -2.36408884  0.13615229  2.11062242  2.65708893  1.29319683  1.07601637  0.93484471  0.70261342  2.05860461  1.83533108  1.58838761  2.38806583  2.53301451  3.76532358  3.72022569 -0.71236127 -1.29137449 -1.37589534 -2.74252625 -3.38138440 -1.81259349  0.91891650  2.03329709  1.15259805 -1.97323047 -2.36825715 -1.57824426 -1.54106186 -2.10030537  0.54117018  0.90566803 -3.17938871 -0.22802428 -1.75105215 -1.10814110 -2.99880877 -1.44350263 -1.84161752 -0.67669218 -1.15310095 -1.40223499 -1.85701594 -2.76064292 -2.79528990  0.12127525 -2.81526054 -1.10114654 -3.09493465 -1.24139507 -0.08461302 -1.80229752 -0.15642646 -0.34644039 -2.54374653 -1.56591910  0.22631198 -1.60762598 -1.49770197 -0.87204075 -0.01410864 -1.25731363 -1.01443168
 -0.32518218 -0.12366677 -0.47787843  0.19719381  0.27939591  0.43728530  0.38821427  0.14310049  0.29160551  0.09864478  0.09230782  0.05217549  0.27211716 -0.31255246  0.08095198  0.13000920  0.18160202 -0.45533791 -0.01255677  0.01635398  0.02705776  0.31395943  0.19058639 -0.48475732  0.24808569  0.19258902 -0.39817266 -0.44767935  0.22261307  0.39518601  0.13754356  0.39786569 -0.22804145  0.16012313  0.09554886 -0.44811799  0.09798265 -0.01561181  0.19566084 -0.10968499 -0.41619149 -0.21119625  0.44338239  0.35685090 -0.02282703  0.02522872 -0.01224112 -0.34032072  0.07081234  0.47612674  0.17695795 -0.40120362  0.29101878 -0.13151547 -0.38501646  0.04005476 -0.43797510 -0.28223624  0.09332669  0.28559046 -0.38609655 -0.26817085  0.18442460 -0.11316289  0.39293403 -0.21904085 -0.06029317 -0.00809509  0.26633774 -0.36364031  0.38321157  0.35113984 -0.07384254  0.32758794  0.20898747  0.40432687 -0.14618292 -0.30225256 -0.43499041  0.42563180 -0.32512194  0.24297223 -0.47456751  0.46690158 -0.38753945 -0.35858118  0.00795905 -0.32453571 -0.13978297 -0.39756814  0.46228610 -0.02469110 -0.16466043  0.14775051  0.36319469 -0.27066240  0.42976190 -0.19606949  0.22225447  0.19706964 -0.05878133  0.10640266  0.04916417  0.36833687 -0.06509572 -0.24097418  0.27351221  0.28954226 -0.04241881  0.33934348  0.21600201  0.13324947  0.08299248  0.24205197  0.10084876  0.19627062  0.38435133 -0.39034808  0.37258650 -0.25464254 -0.28724658  0.33547273  0.22124575  0.04865997 -0.01624361  0.08494180  0.27846628 -0.08603591  0.38930580  0.00113631 -0.38853844 -0.16902318 -0.39203560  0.16104662 -0.30025263  0.04331448  0.42054410  0.47377074 -0.16659753 -0.12129470  0.31370994 -0.44997610 -0.48736178 -0.10248828  0.29296313  0.11435495 -0.40535244  0.17818599  0.22488529  0.46811829  0.42443631  0.43854007  0.30450368  0.14660127 -0.01187446 -0.21081044 -0.26752355 -0.23247084  0.20409597 -0.37727240  0.26961551  0.31651355 -0.04533448  0.37854381 -0.02147216  0.15538868 -0.07716082 -0.09994914  0.13013960  0.25722548  0.27973993 -0.05516340  0.30823752  0.29337290  0.34334971  0.10221032 -0.09125825  0.43901954 -0.21858245 -0.36534751  0.40816736 -0.29311426 -0.42577706  0.21370684  0.35452845  0.06339469 -0.49604602 -0.41191572  0.33203968  0.20917924 -0.28808208  0.10271438  0.02673581  0.16763807 -0.01768160 -0.49369996 -0.17595029  0.40618271 -0.09262022  0.45521098  0.16440528
 -0.65685951  0.38517994 -0.63466806  1.05923718  0.16640358 -0.23185772  0.26163143 -0.51344985  0.22180593 -0.16577949  0.19311028 -0.28811951  0.07929325  0.37170359 -0.41942905 -0.71261192  0.05999808 -0.31395105  0.23402633 -0.57953491 -0.48591659  0.24782768 -0.36362568 -0.82379977 -0.38028551 -0.44732981 -0.44315897 -0.81486696 -1.65481922 -0.65832352  0.92840620  1.08513159 -0.58923566 -1.44080553 -0.29821462  0.06329846  0.65531787 -0.56268259 -0.85439932 -0.89755607  0.53040030  1.03508941  1.31003963  1.94151856  2.55261981  3.09516935  2.60816651  2.74263411  2.62405961  2.21058212  1.33136898  1.75695391  1.49779137 -0.14289694 -1.41902732 -2.23050681 -0.28985424  0.56581415 -0.72746548 -0.38009799  0.08108742  0.25506270  0.09868600 -0.18229485 -0.13172923 -0.39624727  0.18354651 -0.49092264  0.48854450  0.49181529  0.82088206  0.64772685  0.71087344  1.47857734  1.40756697  1.66152805  1.54604912  1.96631795  1.95718608  1.61935411  1.16595259  1.19905110  0.23557433 -0.01115209 -2.07631451 -3.70745261 -4.70674910 -4.49407672 -0.66853923  0.78578477 -0.56752362  0.34383832  0.30241609  0.08988238 -0.35295710 -1.81211948  1.02869924 -0.69424385 -3.95750056  0.15183880  8.46538082  0.87846790 -3.09681813 -0.99754897  0.70586866 -0.51489663  0.28621077 -0.56352166 -0.58424847 -0.91460871 -0.20016172 -0.72278657 -0.30845875 -2.66999862 -2.37581844 -1.02666694 -0.05090611  0.79281619  1.43329639  0.77501065  1.66575705  1.11105581  1.33348701  2.07370634  2.14745156  0.12992194  0.49929802  0.16713942 -0.15749741 -0.67507120 -0.77467793 -0.90307629 -1.48747371 -2.94385512 -1.91013919 -2.00292339 -0.61726958 -1.24110589 -1.95493265 -1.65520555 -2.22046587 -2.00885291 -1.63504724  0.57223696 -1.15105500 -0.25663199 -0.65326005 -0.83533032 -1.43148098  0.62663472 -1.46385098 -0.84644199 -0.99124246 -0.06223727  0.19528454  1.16263578  0.06416630  0.80986494  0.05979050  1.12620676  1.29078845  0.20670558  0.69114656  1.17770593 -0.32181417 -0.75387981  0.81980183  0.62703838  0.25844307  0.70900388  0.20064657 -0.89266382  0.56083869  1.72619635  1.20801739 -0.11155401 -0.55139345 -0.31567399  0.55313908  0.88153728 -0.55514419 -0.78350682 -0.83337164  0.23855790  0.21628876  0.18060252  0.30414326 -0.38254885  0.12518292 -0.12595225  1.12263202 -0.56115373  0.64177964  0.44276219 -0.03839825  0.75752465 -0.26876323  0.58307717 -0.03869375  0.74029736  0.04509733
 -1.08240477 -1.42997260  0.98411165 -0.23000156 -0.76141094 -0.28089107  0.77913979  0.71001117 -2.17219375 -0.10753670  0.50944610  0.17617000  0.34164565 -0.42575512 -1.75586840 -2.45660312 -1.94504254 -1.36704869 -0.41751378  0.63565911  0.41002300 -0.56258865 -0.21728823  1.71244835  2.86140259  2.09695776  2.74310980  0.92446202 -0.28254770  0.18424645  0.51059265  0.17420733  0.20663388 -1.00840732 -0.84723176  1.05432346 -0.05507842 -0.28538243 -0.57458072  1.21862770  2.08927255  2.23990181  1.61851144 -0.67215542 -1.82914191 -2.07362449 -1.92750447 -2.45964411 -1.85380888 -2.68271662 -3.45982343 -2.74657775 -0.47898774  0.88774076  1.06312806  0.40807537  0.66460459  1.68996575  0.49562793  0.22502649  0.17511453 -0.11807974  0.81417887  0.97193526 -0.23222152 -0.92879642 -0.26491637 -0.75182912 -0.41718919 -0.86201379  0.31987182 -0.02968397 -0.31482501  1.60301725  2.14025118  1.12821967  1.98116575  1.99542288  1.86264427  0.67215853  0.81057705  0.11553505 -0.91676990 -0.68238018 -1.24054399 -2.08208111 -1.29598878 -1.26080641 -1.76791650 -1.64106150 -0.50285655  0.35026129 -1.92501388 -1.47125236 -0.06361006  0.47552002 -0.11639588 -0.14601248 -5.37709184 -13.4970454  3.81644701 -22.5305161 -2.03085267  6.87394760  7.77374476  8.79749531  8.97201539  6.75633359  3.67329778  2.38680765  0.14849962 -0.57959085 -0.42633115 -1.14250844 -0.79065304 -1.11893533 -1.10467437 -1.13277616 -0.55876635 -1.22940791 -1.43146870 -0.24984061  0.39225396 -0.07129431 -0.43431203 -0.61175304  1.19044882  0.56659354 -0.29048556 -0.17019906  0.90003299  0.78869921 -1.06444324  4.77225538  0.84312359  1.33671303  1.03710641  1.80832621  1.70553169  3.11138559  1.78029965  2.48828110  1.92019930  2.27821034  2.24311906  2.27319416  1.39039924  0.89355126  1.01114021  0.91180939  0.19557843 -0.70907817 -2.83863828 -2.69364431 -1.06425658  0.01948346 -0.73904318 -1.08181715 -0.99295047 -1.93838810 -1.98408056 -0.42193344  0.28129018 -0.14312915  0.13544308 -0.12125978  0.13845068  0.47301361 -1.34292696 -0.86497144 -1.07332158 -1.34561170  0.27888805  1.01066192  1.28266478  0.60065504  1.32527990  1.17411941  0.89415620  0.67927379 -0.32917620 -1.83949359 -0.83775169 -1.56271738 -1.11991666 -2.15530026 -0.45259076  0.56483978  1.18220796  0.08576612 -1.85838876 -0.04331879  1.07524175  0.35663460 -1.65442835  1.14302215 -1.68759300 -0.81807292  2.07080107  2.24763387 -0.83553181
 -1.02559470  3.08280917  0.60312676 -0.11138499 -0.47603437  0.40114218 -0.14190286 -0.06614288 -0.27114900  0.51028044 -0.23011477 -0.23590672  0.46267016 -0.53685189  0.64505197 -0.83559043 -3.61666421 -6.91253431  2.84992550  3.56687708  1.77488085  0.69785124 -2.23282692 -3.39822245  1.27078465  1.42281008 -1.68063440 -0.18104789  0.33664246  1.18876365  0.13028704 -5.60044222 -3.16029287  0.50605653  1.53593470 -1.51418558  0.48177242  0.45352293  0.75334408  1.17535855  0.26633057  2.23200705  0.13061874  0.19904179  1.25750347  1.05034551  1.81626563  1.79390042  1.83853444 -0.17872851  1.28171023 -0.25491851 -3.28077168 -3.11112981  1.04902663 -0.24662994 -0.94514297  0.53453068  0.30777579 -1.69898629 -1.03439935 -0.26791830 -0.72005723  1.10943108  0.46448777 -0.55527615 -2.44319978 -1.89410352 -1.34285723  0.54664618 -1.03719121  0.32497709 -0.07042371 -4.60721334 -1.74856400 -3.61751515 -1.53335699 -0.01561684  0.24583017  0.79196847  0.73483161  0.47634936  1.17281057  1.94991398  2.20899894  2.94609897  3.06848082  0.45419128 -0.29623597 -0.84683010  0.22286755 -0.17937597  1.10883592  0.04770575 -0.34219710  0.22191732  1.16872684  0.58571956 -0.83035866  2.44695583  2.88325902 -0.41783129 -0.25790087 -1.95617659 -0.32166903 -1.06774502  0.65119373 -0.47269458 -0.26335487 -0.49331252 -0.14114079  1.45747362  0.00189526  1.23655922  2.20452279  1.39702935  0.67135475  0.41092918 -0.31474326 -0.42554196 -0.35929743 -0.53250380 -0.67624479 -1.86535674 -0.48018848 -0.21712005 -0.44126501 -1.59427790 -0.35435316 -1.13453428 -0.54870866  0.11014296  0.71300460  0.93566173 -2.88443647 -4.83049182 -2.16615288 -0.41119571  0.57658385  0.37380026  0.51223878  1.18641117  0.90255306  0.35873150 -1.91286152 -3.96832235  0.28018784  0.71949097  2.05709663  0.64366071  0.56466352 -0.01224107 -0.07396235  0.78503243  0.26317022  1.89288213  0.73762090  0.84531905  0.17068409  0.22610302  0.34411308 -0.29647227  0.23690982  0.72238737  0.77843194 -2.39530072  1.41108156  1.06402061  2.06820261  2.00295274  1.96389610  0.16717731 -0.92416023 -0.55288881  0.37997608  1.51642692  1.69154331  4.90729107 -0.95050268 -3.51905353  2.01049013  3.54051164  1.10703435 -0.00334055  0.86101492  2.13515761 -2.03541367 -0.97534037  0.51231084 -0.02418095  0.56556423 -0.34967387 -0.06196539  0.79822803 -0.28707651  0.26337288  2.15069187  0.84159715 -5.64543018 -4.86091655 -0.73621677
  0.41885390  0.15803662 -0.01315847 -0.34053057  0.33860125 -0.01677326  0.04986995 -0.01519850  0.20041675  0.15455997  0.26185149 -0.14091324  0.32848157  0.42073538  0.42887276  0.02180548 -0.17929656 -0.39055115  0.45559132 -0.47588505  0.37463708  0.04639054  0.47407397 -0.03886326  0.40210265  0.33762144 -0.40741227 -0.46563395  0.47148505 -0.07121261 -0.09962113  0.40517337 -0.39736074  0.40315829 -0.41923167  0.45772502 -0.09672119  0.14737119 -0.03972161 -0.37859459 -0.18059225 -0.26137043 -0.00307686 -0.33528140 -0.32423101 -0.05913939  0.20037675  0.00969319  0.06360252  0.16945293  0.04715285 -0.04816771 -0.27038434  0.03495984  0.42648006 -0.35462945 -0.11421348 -0.46791882 -0.30727085 -0.12922613 -0.02527052  0.10694226 -0.21040218  0.09054293  0.02326858 -0.11620785  0.06191488  0.44012050 -0.45488329 -0.46403074 -0.42465975 -0.12142776 -0.21116843  0.08627862  0.05681338 -0.02219947 -0.45949611 -0.22961950 -0.49928714  0.11721199  0.45294490  0.06099159 -0.41782871 -0.30429687 -0.39103434 -0.47839446 -0.14609786  0.00709503 -0.43441015  0.05835721  0.38960810  0.05184151 -0.32317193 -0.30871993 -0.34451332  0.21356322  0.08848307  0.22983474  0.16551602  0.14620598  0.27449105  0.25638625 -0.46180976 -0.41807554 -0.14431328  0.10963177  0.07359573 -0.09072065  0.39307179  0.08798168 -0.45891503  0.36113561 -0.33569365 -0.36132181 -0.42748646 -0.21119214 -0.32458026 -0.05879258  0.31119855 -0.24307764 -0.48406794  0.21770269  0.32636199 -0.28936460  0.42683533 -0.50048722  0.44169548  0.03292075  0.24761901  0.12599960 -0.30278275  0.04481222 -0.10087371 -0.24642311  0.14418369  0.27159288  0.38017119 -0.26491783 -0.30166502  0.29061355  0.33993848 -0.24428591  0.16754823 -0.48021079 -0.09089001  0.25412462 -0.17771824  0.09835760 -0.29074856 -0.35272237  0.36888972 -0.26139065  0.37860379  0.20885908 -0.03730438  0.31855850  0.22136943 -0.08265818 -0.13537531 -0.01800638 -0.44346992  0.07509856 -0.45998493 -0.03147134  0.34151821  0.19721849 -0.24666524  0.23457743  0.44477739 -0.03583116  0.03806248  0.29803206  0.23328140 -0.28096324  0.33107455 -0.34439464  0.48604581 -0.33354340  0.26697575 -0.29182025 -0.17349070  0.14842840 -0.04122226 -0.28296662 -0.13114894  0.43342269 -0.45216745 -0.39646766 -0.13625651 -0.07460965  0.09900492 -0.06464035 -0.48409594  0.15356451  0.41779767  0.37129386 -0.13440466 -0.31390420  0.12005681 -0.17664124  0.16233582
 -0.63967686 -0.08245761  1.84638876  3.79479614  2.69861595  2.60704607  1.11694324 -0.57643318  1.20595653  0.11044365  1.58946429  1.74802691  2.03378210  4.02343719  5.16807797  5.41995126  3.89864699  3.09121133  1.24654166 -1.86481005  1.95056266 -0.33160188 -2.50548929  0.63018898  5.09174687  3.67781294  4.33993730  4.43443036  4.91819131  4.94624525  4.25352442  4.58350640  4.64321740  3.51662218  3.36797224  4.35051327  3.10655388  2.99574067  3.37746294  0.30443382  2.90377246  0.86730728  1.50316354  1.35500831  0.67353749  0.46769911 -0.07258030  0.25991652 -0.13500345  0.45104088 -0.26939879  1.72012774  2.24222809 -1.40913409 -2.00829256 -0.92609703 -1.88229986 -2.73484111 -1.21509689 -1.45012820 -2.26402756 -2.24424174 -2.67814147 -2.26798898 -2.25439058 -2.75695618 -3.42231611 -3.60607451 -3.35033429 -3.84397688 -3.01790559 -3.20887287 -3.05058617 -2.71996273 -2.82116140 -2.87939485 -3.67636658 -3.79265592 -3.85207917 -4.21598204 -4.27342000 -4.27674698 -4.80112970 -5.27895147 -6.06857977 -6.11876601 -6.53856533 -4.00914130 -1.51006536 -0.36573322 -2.18710113 -0.78621477 -0.30101069  0.17219108 -1.22423802 -0.30050113  3.57641204 -1.21928564 -5.73082100  1.13779293 11.89895073 -1.31559241 -6.61641074 -1.26315573  0.23070443 -2.05060628 -1.69980820  2.05059383  0.12939462 -0.04928098 -0.01207949  1.20556591  1.37016914 -0.35343078 -2.30259171 -2.72994477 -1.86556596 -1.40095811 -1.19487096 -1.60538387 -1.51628022 -2.54543196 -2.59913087 -1.29743758 -1.72819540 -3.28702721 -3.22400082 -2.80538267 -3.34117050 -3.67449495 -2.90656522 -3.72548616 -4.94200179 -4.38259945 -4.45366082 -3.78255875 -1.57347283 -0.89536920 -2.68907885 -2.69819357 -2.52809816 -2.00468292 -1.88266600 -2.10477325 -1.58921123 -0.67596799 -1.21630241  0.70323658  1.44753374  1.56491549 -0.24425557 -0.18763642  0.66057528 -0.47862073  0.61062785  1.03386614  2.34091993  3.04207993  1.93681684  2.49903616  3.75217668  3.73086566  1.78231879  1.86921734 -0.27158969 -0.44692798 -0.07025674  2.87125287  2.65696041  0.13131708 -0.14389351 -3.11756935  0.54687897  2.93397288  5.22261769  7.92701858  6.94863484  0.95205576  2.74327168  3.17535769  0.76917669  2.61781417  3.74064444  3.88333509  4.13836474  2.88030490  3.32706965  0.39639866  0.33429684  0.76859010  0.34438669  0.72962103  0.69871724  2.23273570  0.62781589  0.67827299  2.56421926  1.59149703  0.41259407 -0.73073081 -0.05769317
  0.04722313 -0.98730674  0.62632755  2.87070472  4.72205284  8.16277152  8.18748305  8.08001854  7.70945476  6.58720520  6.29395695  4.69122168  3.92111662  3.70349239  1.96148457  1.11730273  1.03007112  1.17368638  1.36772233  2.88329787  2.01427678  0.74479476  0.52400665  0.54274833  1.49948981  1.29137469  0.68262015  0.51367682  0.35988809 -0.00466564  0.26565421  0.64336939 -0.17767394  1.13414321 -0.05100440  1.49829315 -0.19250778  1.55605780  0.99388397 -1.85559271  3.08525423 -1.81966743  2.41518649  2.40743769  1.01287103 -1.08472430 -0.42373128  1.14737209  0.15318234  1.66062878  0.44305539  1.09858412  1.38933574  0.16528227  0.18336734 -0.22206662  0.39419913 -1.17194460  1.57639663  1.18331236  0.40194411 -0.09874814  0.22285866  0.68674358  0.31440448 -0.06853432  0.81252461 -1.04423464 -0.75616569 -1.46603264 -1.01870481 -0.37275242 -0.86851029  0.46019894 -0.70322793  0.73533717 -0.37955807 -0.75200193 -0.56300956 -0.21079481 -0.27173480  0.06568508 -0.58088514 -1.31083215 -1.24984327 -1.96019451 -1.70220334 -1.43085173 -0.80589981 -1.32827826 -0.92753492 -0.54262545  1.25808438  2.12297559  2.69103286  1.64429835  3.29347101  3.00319408  5.99199996  7.86753647  2.80743246 -7.69835084 -6.46204444 -4.41488031 -1.90696794 -1.34500666  0.04835191 -0.02643107 -1.17440136 -3.03726773 -3.71553750 -3.46055107 -3.20632937 -3.34728602 -2.89342901 -3.02874381 -2.01438254 -1.74083226 -0.88701149 -0.73524616 -0.16326250 -0.17503359 -0.15320682 -3.53753923 -0.44939970 -0.12963001  0.23643111 -2.10617402 -2.80380923 -1.50386896 -1.39194835  0.03825755 -2.32122944 -2.25036310 -0.61322214 -0.50050642 -0.19263842 -0.11845698 -0.56994878 -0.76641131  0.67230291  0.44529880  0.93460857 -0.21357267  2.05818293 -0.61356830  0.04899310  0.74829258  1.10434973  1.17054976  2.57230707 -0.34278749 -4.57741420 -6.28634941 -2.87432160 -0.47916210  0.96286078  0.60255301 -0.54893712 -0.02054171  1.39933406  0.41402393 -1.80046908 -0.63406939  0.66732892  1.77047176  2.69026042  2.55735758  3.13620607  2.23119715  4.35305081  3.42734183 -0.94153577 -6.05034022 -6.96724582 -7.88078556 -6.34034525 -7.28763305 -6.51101165 -2.99147214 -4.14614560 -4.95342870 -0.49251300 -4.02267792  0.30109887 -4.75828602 -2.65346321 -3.84447041  0.63091265  2.75169470  2.22650731  1.92301567  1.45059827  1.50396331  1.29682457  1.80446340 -0.39250173 -0.89417140 -0.22438758 -0.74703529 -0.11469363
  3.11394187  3.67651401  2.69885682  1.49286007  2.16543761  1.99331765  1.86364770  0.45310878 -0.95814208 -1.30554513  2.13549218  1.62244633  1.30834547  1.29646267  0.78115617  0.92237552  0.56029497 -0.52683365  2.21223274  0.63148503  0.95422703 -1.50708941 -1.53104897 -1.77760951 -3.15479446 -1.19473894 -3.00224676 -1.16384798 -0.46932459 -2.98810784 -2.73377873 -2.29534103 -2.23330903 -2.57606319 -1.49104785 -3.32449186 -0.91562675 -1.86788958 -3.11280240 -2.16733484 -2.68393719 -1.56945708 -2.85057801 -1.14594745 -1.46660590 -6.34306806 -1.48668564 -1.88237930 -0.21647185 -4.74960773 -1.44862744 -2.54176581 -2.99651712 -1.30244138 -3.62991255 -2.60221131 -0.79706098 -1.28035322 -1.45421108 -0.51741827  1.43698491 -1.44717714 -1.34551885 -1.91281399 -2.23956294 -0.11352335 -0.33193457 -1.52381847 -0.36280994  2.06879595 -0.80084246 -2.06761841  0.34536571 -0.79552185 -1.26787223 -1.27474263 -0.69574853 -0.38322181 -0.62215712 -0.46905857  0.01066059 -0.52483718 -0.21235576  0.28610751  0.18508848  0.74639335  0.64605136  1.52672041  0.75815976  0.87469914  1.73645689  1.08569692  1.16785374  1.79623779  1.25396657  2.97956040  0.58206189  1.09046600 -0.52963040 -9.54072685 -0.94780738 10.67772901  1.88558623  0.95337321  0.91207190  2.32039066 -0.25407580 -0.27909395 -0.43138906 -0.35367164 -0.03132784  0.00521012  0.25071923  0.60195694  0.84409611  0.72948751  0.39493828  1.31087169  0.88949659  0.65118803  1.54548366  0.86938997  0.76424682  0.05829244  1.49939663  1.27142342  1.18824351  1.17663981 -0.47396995 -1.18451066 -0.89072186  0.47760245  1.50843635  0.50820652  0.24871913 -3.04093294 -0.69701629 -0.85664571  0.13715792  0.18471328 -1.20111883 -1.72699206 -1.69993255 -2.67412877  0.23775129 -1.16921066 -0.80603299 -0.68820052  1.45839812  3.09815404  3.66983849  3.45967784  4.01854729  3.35350000 -1.33050014 -0.52562925  0.67838367 -1.57165035 -3.65491799 -0.72242284 -1.35256388 -3.45850615 -1.41534089 -2.05624072 -0.08993952 -2.51787910 -2.63147381 -1.94090396 -2.82484759 -1.67094507 -3.29389497 -1.81939119 -1.97247048 -0.76214318 -0.66093188  0.32679731 -1.66665514 -0.14802769 -0.62639460 -1.42951441 -1.16776600  0.35985781 -1.07878282 -0.00315123 -0.63076356  2.55112922  3.55284132  6.40309734  7.29252484  6.73667402  5.93612936  5.66619302  4.50744332  3.81580524  2.91465693  2.84758122  3.42961174  4.26937900  3.73472520  3.72834118  3.13039268
 -1.55592817  3.08273352  1.73916243 -0.45260140  3.90135069  0.66985597 -1.25962938  0.34196115  0.74922624  2.34180756  1.80497962  0.82690075 -0.81366000  3.73727199  2.04787790  0.00411146  0.72279819 -0.72004809  1.87260923  1.69859893  1.46964225 -0.45244109  2.77736683 -1.11018011  0.51955194  0.34834319 -2.57395969  1.31049392  5.88058758  0.84476047  1.86151766  0.17807829 -2.64489494  1.11572128  3.24649537 -1.25327473  1.50780181  3.35462585 -1.03040015  0.52909970  1.90206242  0.96481747 -1.51394746 -3.07567358 -1.14357661  0.44019998 -0.56399924 -1.18423614 -0.81922272  0.54719129 -2.80962557 -7.37511669 -5.68501762 -4.74322719 -1.21994820 -1.59965002 -2.78380833 -1.39158296  0.16250521  1.42199398  0.33655391 -2.23007706 -0.63920166 -0.24443641 -0.70542733 -1.25166027  0.25326119  1.28138873  0.30373236 -2.13646132 -0.72473663  0.64360957 -1.34616469 -0.64335562  0.02325140  0.30842208 -0.11556735 -0.91514762 -0.83299461 -0.74748888 -0.93509836 -0.68187517 -1.35175320 -1.28259091 -1.19242344 -0.67474332 -0.80727844 -1.38765885 -1.46964428 -0.84682378 -0.78290714 -0.07091581  0.70237499  0.40979547 -0.64593434  1.57271536  3.18590124  3.55230601 -0.91085309 -5.53047549 -3.27139361 -0.51446978  0.91837239 -4.70026187  1.62440401  1.51673057  0.37350984  1.15452875  2.27186907  1.43021273  1.34093488 -0.14711603  0.29490337  0.20570640 -0.25679674 -0.63264964 -0.31413496 -1.06442013 -0.90830283 -1.53781455 -0.71963384 -1.16017281 -1.77594366 -1.37220335 -1.33768704 -1.32793584 -1.98693813  0.87622137 -2.48499303 -0.91135586  0.77748434 -2.20779335 -4.85337131 -0.98285964 -0.24405468 -0.44070272 -1.29427911 -1.93358247 -1.52682643 -1.20586327  0.23472635 -0.60618865 -1.33499691  1.30544346  0.32587219 -0.01094649  0.70615493 -0.63727202 -0.65178816 -1.91346689 -1.08222879  0.42224919 -1.71045717  0.82642497  2.71027821 -0.70300777 -1.67201411 -1.62224840  0.46578186  0.99507335 -0.43367020 -2.07124058  1.60008556  4.37446028  1.61980240 -1.30779829 -4.56544427  0.40509431  3.19921584  1.81262737  1.58798940  0.50729951 -0.16787844  2.76238853  2.10924053 -2.13327231  2.03742022  1.39060956  1.67599856  0.49555067 -0.03302710  2.95277326  1.55624687 -0.69829756  4.71260191  4.59529147  1.57493792 -2.82782001  3.42453323  2.23681217  0.81871106  0.04619889  1.19965843  2.94899265  3.04626247 -1.39179156 -0.94238276  6.14887141 -2.03713804  2.53662585 -1.88525077
 -2.00801920  3.00077257  2.50666934 -1.50796484  2.80786759  3.97223562  1.81432659  1.36141271  1.49320669 -2.95303481  0.45167614  4.38523547  6.82900274  6.07908778  5.34454383 -0.54011016 -3.73955000  1.41853771  2.83595873 -0.77757775  2.50873411 -1.23450803 -0.42678172 -1.02792165 -2.48512797 -2.22530938 -2.35597167 -1.70133470  1.11116596 -1.68291036 -4.27924525 -2.62344963 -2.45059970 -1.06075197 -2.69133797 -1.18066173 -4.06105946 -2.30445777 -3.54537002 -3.27621493 -2.87115298 -4.02237520 -7.45498249 -6.85865523 -4.63921076 -6.44800449 -6.68904238 -6.67526705 -6.00620843 -10.7885486 -8.33249518 -10.8131793 -6.13065632 -5.96977119 -6.01967925 -5.94359433 -3.91457365 -3.69477988 -6.72606727 -5.01778308 -5.90246262 -6.15746155 -5.22432405 -3.76161770 -2.50329708 -7.31578913 -9.49757117 -5.96508955 -1.18240275 -2.12969902 -6.36672264 -0.16330850 -2.14656768 -6.78210702 -0.64256452 -8.19089181 -1.80444721  2.82961165  2.90099876  3.37720563  2.76561734  3.23441421  2.28676771  2.52036697  2.87589645  2.58558016  2.94838715  2.82414472  3.20563015  3.31268116  4.01894983  4.05508217  4.06160195  5.05819166  5.96918048  2.15391143 -0.46970301  1.98152464 -5.63273679 -3.14729977  0.54406740  1.69099683  7.44333732  0.03884837 -0.82333713  2.98217545  6.28456354  4.60414699  2.94566298  2.11861037  0.97653589  0.93309835  0.26881725 -0.53133588 -1.05037924 -1.26607346 -1.21289292 -1.26506310 -1.56307173 -2.18834521 -2.19827551 -1.85618644 -1.88473324  1.24803692 -1.22875388 -1.79439974 -2.65727104  0.00024905  2.43160735  3.79281990  1.91415099 -0.50069965  1.18172603  3.15123122  1.47964989  1.53820174  1.08585511  6.82339881  9.35558387  7.92570499  7.37585622  8.46205140  6.78427088  3.11020241  3.45862850  5.80524727  4.14620882  3.94435805  2.00858010  2.10045536  2.97661092  2.22309953  0.26518546  1.06570790  2.81291033  4.68826699  1.98125800  2.14936877  0.26742543 -0.97692784  0.37919424  0.74847427 -0.53849415  2.51388959  3.63299265 -0.46015082 -3.14227958 -1.57338148 -2.96298166 -1.65313951 -2.65207957 -1.76030976 -2.74292212  1.89394518  2.37114855  3.26062423  5.06012277  0.30882347 -2.82944771  0.30423301 -0.47474233  3.61285931  3.03797365 -3.99862165  2.09523836  5.97631336  0.01209596 -1.37762314  4.72822588  5.61193697  1.00286293 -1.79675801  2.12753599  4.94810676  3.24370320  3.14070652 -1.06468448  1.29523340  4.20592481 -0.47287563 -2.08902095
 -0.33302279  0.31306339  0.22022278  0.12183212  0.41281685 -0.15652798  0.23389660 -0.39138588 -0.20367427 -0.02934573 -0.21261569  0.48440591 -0.18485559 -0.17283591  0.05634864  0.46002051 -0.38936305 -0.08667970 -0.05460167 -0.32654172  0.27321480  0.39421278 -0.26422507  0.05899810  0.27684051  0.31931654  0.02704848  0.09385707  0.43682688  0.42532911 -0.23892611 -0.39619290  0.23839553  0.48129973  0.22564225  0.15121535 -0.17522531 -0.04045822  0.25983243  0.12110337  0.43019900 -0.45278031  0.10551225 -0.25465360 -0.12561323 -0.33813612 -0.29463013 -0.01497333  0.07518713  0.15077116  0.15848791 -0.15159510  0.04498692  0.39426583  0.40740599 -0.17816958  0.21358537 -0.06554250  0.41569054  0.15041529 -0.14021034 -0.32323252  0.25422543 -0.40181180 -0.34192980 -0.02012932  0.24940656 -0.01715210  0.43941548  0.00924201 -0.39604570  0.36961752  0.05646474  0.20946958 -0.38503307  0.43085452  0.37133648 -0.17966018 -0.08411578 -0.05347335  0.47111403 -0.42562481  0.29493460  0.01610400  0.46864406  0.20234364  0.33793746  0.18223247 -0.36319585  0.25363099 -0.16734924 -0.00340315  0.43040157 -0.41312069  0.09478817 -0.41152511  0.06675312 -0.15580216  0.07132587  0.00617168  0.35344285  0.17528323 -0.12420785 -0.09008941 -0.11524427 -0.00923798 -0.15923200 -0.24390491  0.31110473  0.25665512  0.20262463  0.28222165  0.33103324 -0.00243779 -0.20167136  0.29968028 -0.30009120 -0.36373095 -0.01808431 -0.16328409  0.38990303  0.31456943  0.33331570  0.32030749  0.40145160 -0.07189329  0.40878519 -0.03179252  0.27230730 -0.01988621  0.47438185  0.12575290 -0.34460028 -0.14982325 -0.46433375  0.04015822  0.34094158 -0.12356289  0.29625620  0.15204923 -0.36690483 -0.00111620 -0.06572614  0.46413138  0.49644895  0.23260548  0.26381464 -0.30363926  0.36887751 -0.25426668  0.03307964  0.25878353 -0.43969427 -0.13360167  0.07909400  0.46176032  0.29450802 -0.01211780 -0.07002917  0.06681836  0.46799903 -0.09564429 -0.30742572 -0.37659824  0.25453548 -0.27175648  0.16356298  0.09548008  0.10468366 -0.04017776 -0.25246764  0.23778187  0.45870903  0.18180920  0.20191621  0.45516097 -0.08558231 -0.03426609 -0.34847522 -0.21670169  0.21147032  0.18460749 -0.45791513  0.27177910 -0.44899113  0.12118197  0.23354251  0.34552000 -0.39093275 -0.33648357 -0.08765858 -0.42293065  0.06787518  0.10491869 -0.29952595 -0.17758643  0.33316513  0.36403999  0.41789663 -0.06214823 -0.17613479
 -0.33458287 -0.32437566 -0.21743131  0.34723843  0.37755092 -0.26226304 -0.23833918 -0.15671227 -0.11073687  0.04495963 -0.44524281 -0.42613007  0.08704585  0.32654353 -0.37511002 -0.29176084  0.06009471  0.47041696 -0.18268988  0.22361156 -0.11724310 -0.10561964 -0.20850717  0.48768416  0.09486471  0.11391554  0.32085988 -0.04108215  0.03182946 -0.24126812  0.28280473  0.19728061 -0.06561772 -0.43461029  0.04452960 -0.18805725 -0.19686350  0.30620052  0.15524075  0.19240999 -0.14882782  0.21001484  0.26630090  0.43823720  0.03657054  0.39119465 -0.35352296 -0.40333370  0.36161286 -0.03620876  0.32028326 -0.25562541  0.35817528 -0.38822263 -0.26794207 -0.04696290  0.22568824 -0.44709110  0.41194081 -0.24250278 -0.18838557  0.19471319  0.45474214  0.24595890  0.26006367 -0.00076818 -0.44213973 -0.43684217 -0.19461071  0.21305761  0.25552470  0.15651668 -0.07697558  0.02177263  0.09469951  0.45954170 -0.08708554  0.24112415 -0.44384559 -0.22552698 -0.29513950  0.37638293  0.01879281 -0.43701909  0.48810514  0.25079537  0.01596574  0.21374307  0.30365810 -0.07213970  0.47118905 -0.38478771 -0.37749011  0.42587929  0.36113577  0.38255248 -0.07490668  0.41898155  0.44569963  0.23049616  0.13206693  0.20121258 -0.11305512 -0.44501130 -0.27710106  0.48157965 -0.48553222  0.13575487  0.22264743 -0.42942093  0.41020089  0.42749582  0.44695111 -0.07102370  0.49045614  0.43503914 -0.32023875  0.00641118  0.14877275  0.48340812  0.43425920  0.11995520 -0.40137915 -0.44322831  0.04583163  0.45974472  0.43930182  0.47089444  0.37868484  0.38494630  0.20130564  0.01064306  0.08607536 -0.41180623  0.06558699  0.30894045 -0.43025326  0.08003934 -0.05531187  0.29239366  0.15061771 -0.14511811  0.21987614  0.09755580  0.28384748  0.21032030  0.03258271  0.46359479 -0.28328429 -0.31866294  0.44698235 -0.34904783  0.30126765 -0.45442342 -0.29230421 -0.15293044 -0.49470983 -0.35303604 -0.18207121  0.38393791 -0.46812821 -0.48080478 -0.10545958  0.11790552 -0.39265372  0.46008501 -0.07319711 -0.32295201  0.04007650  0.37144174  0.46939350 -0.30935374 -0.27372414  0.18922154  0.28815487 -0.48992384 -0.10050597 -0.17931096  0.47362236  0.11615886  0.00197743  0.42056531  0.26708626 -0.19676846  0.46612847  0.47476038  0.15026726  0.47137397 -0.37832679  0.46814341  0.35525800 -0.34651881  0.48725909 -0.25029680  0.27128708 -0.40549089 -0.29029512 -0.30197671 -0.22849299  0.24974358 -0.43056693
 13.85310560  1.37514445 -6.64719077 -4.54967569  2.08543402  5.65771531  0.90581134 -2.65375061 -0.34924486 -1.15144211 -3.70168501 -3.62227605 -0.37453372  2.14118264 -1.30150917 -3.94944854  1.78614401 -2.74963348 -1.00191281 -3.33080349 -3.88756542  1.95317929  0.07307955 -2.48322718  0.84383850 -4.14667778 -2.89613001 -2.44625025 -2.80604667  2.10730696 -2.95494345 -0.62640443  0.94155760 -4.41783264 -3.36906027  0.13526753 -2.89817021  1.99766215 -0.87948458  0.21034745 -1.10832305 -1.30145158 -3.28870868 -1.29795955  0.83572112 -0.68848278 -1.68615233  1.53767134  3.52901790  1.89923876 -1.02975072  1.91928934  3.30537956 -1.76484681 -2.62764387 -0.17585555  0.71473797  0.70500599 -0.39191060  0.03757668 -0.52710203 -0.31300567 -1.36927605 -1.58704099 -2.12840833 -2.70227326 -2.52913753 -3.15281295 -1.72834769 -2.21143770 -1.27053545 -1.15289892 -1.19131276 -0.75297092 -0.81306962 -0.45978770 -1.09084367 -0.62724850 -0.00166171  0.02601414  0.59922139  0.00751975  1.01843627  0.55914003  1.10589452  0.87241240  0.93323812  0.79362738  1.55471222  1.82248245  1.83404946  2.76421473  2.89651628  3.13260524  2.90323998  1.99525686  1.31314382  0.93678088 -1.35428754  1.39070971  9.12294498 -0.59688342  1.04000833  3.10414606  0.69494386  2.99338209  2.97299064  3.11776644  2.58945947  2.18289102  2.39910282  1.78849349  1.85080664  2.12938591  1.83087713  1.47605489  1.50718504  1.19299566  1.44317579  0.76139211  1.26654765  1.02954661 -0.16535577  0.98420974  0.34927225 -0.96647986 -0.95399757 -1.85896667 -2.20628085 -2.29574811 -1.91848287 -2.03254035 -3.54771875 -2.50053389 -2.45130128 -2.18961703 -0.96430072 -0.87157726 -1.35820789 -1.32264592 -2.23724238 -1.89366312 -1.07790153 -1.86244861  0.20759016  0.87503184 -0.50305872  0.49779684 -0.72412334  0.76815887 -2.25990956 -1.78123531 -0.25715500  2.70059075  1.27482929 -0.42447126 -7.00965758 -2.94375548 -1.73446963  2.41317191  3.00564022  2.09452395  0.69809322  1.47304004  2.13643860  2.39065910  3.50061661 -0.70314635  2.37966123  1.17940117 -1.40567104 -0.28257614 -1.14047249 -0.03745881 -2.85000299 -1.02110641 -1.22127147 -3.84326481 -3.63099568  0.43451851 -0.79457451 -2.80571060  1.60798052 -5.27587325 -0.81382844 -0.46443582  6.65262433  1.65454639  0.31831040  0.17018464 -3.82960596  5.31279895  5.14203701  2.70530749 -3.34402245  0.95744323 -3.99234262 -4.23214034  3.59516125  9.53832125 14.32942535
 -0.78899508 -0.33411667  0.80343120  0.59702666 -0.69450985 -3.17452682 -2.43662877 -1.04278053  0.10191141 -0.33658076  1.20104121 -0.88051157 -0.22607740 -0.65429076  1.51340237  0.85877029 -0.63377185 -2.82174622 -1.92420007 -2.33537054  0.06840253  1.46430013 -1.22803293 -1.10257200 -1.08697218  0.09148066 -0.40004975 -0.04265366  1.31876130  2.38262074  2.54864492  2.34850418  2.65598635  3.15686394  2.97990748  2.93542816  3.71709274  3.35137368  3.76650589  3.56975717  1.97257514 -1.52304941 -2.45086286 -1.28341144  1.89355090  0.73506558 -0.43705389 -3.35603801 -2.16673291 -2.00300751  0.63502613 -0.12771003  0.37473251  0.46759433  1.74515758  0.19105566 -1.57243179 -2.29766871 -1.57734560 -2.66239246 -2.72140211 -3.91888208 -2.15694149  1.89017875  2.83937562  2.51313622  2.42793176  1.92580785  2.15003012  2.43639699  1.38887933  1.23734435  1.86456073  0.61962004  1.21589560  1.26176517  1.01783227  0.89370905  1.14628072  0.58546499  1.09375444  0.56536812  0.21723839  0.61326769  0.15554552  0.62299711 -0.89188897 -2.05684579 -3.15873243 -2.31055438 -0.99461606 -0.34706132 -0.28843955  0.01317845  0.72930015  0.33196764  0.32109069 -2.92242492  0.98453427  1.01775711 -0.10445941 -0.29055288  0.08364522  1.74218170  1.79361879 -0.99080469  0.29041284  0.15284104  0.27731379  0.37881962  0.21488168 -0.63001558 -0.87052391 -0.07166621  1.02970834  0.54782806 -0.04578548 -0.07160787  0.22960092  0.40003604  0.98158838  0.47235984  1.01166638  0.10597836  0.68936516  1.10332906 -0.22575111 -4.86350804  0.65522411 -1.35236150 -3.69416947 -0.61861659 -1.89281392 -3.58252314  1.92492670 -0.55818914 -3.30447597 -2.43775826 -3.62759442 -2.04412799 -3.50310078 -1.18976428  0.29192090  0.09338608 -1.77039596 -2.40659653 -2.04010976 -0.47937052 -2.30410468 -2.78405668 -2.96254804 -2.25145193 -3.30112583 -3.68880429 -2.59243864 -1.32519280 -1.92963418  0.67649635  1.92161448  2.92384935  3.47364120  2.66696474  2.82484866  2.80122411  2.12259318  2.72714990  2.76553997  2.52564256  1.73145648  1.26726587  1.29766210  1.53431149  1.16515869  0.45149238  0.98253787 -0.12699502 -0.64564995  1.32669775 -0.66699221 -0.28212216 -0.39526689  0.32262188 -1.07878877 -2.44482090 -0.54650313 -1.81053205 -2.47885202  0.19941917  1.60087936 -0.75805032 -1.58706503 -2.10716527 -1.76353461  1.79362372  2.87280037  2.17041581  1.37139020  0.83985519  0.60543022  0.41949595 -0.33381561
  0.09990369  0.17800202 -0.28904647  0.21569936 -0.38035518  0.02780953 -0.46496168 -0.26444887  0.39599239  0.12146373 -0.19117434  0.18008099 -0.15849502  0.12256007  0.12762892 -0.11916890  0.42534824  0.10337860 -0.42813085 -0.25436397 -0.02799852 -0.02049902  0.12911340  0.45905525  0.37486513 -0.02138090 -0.18729798  0.25382494 -0.26416740 -0.20170470  0.01253836  0.33573194  0.47629294  0.22348744  0.05142681 -0.40406671 -0.24870746  0.08646071 -0.16852001 -0.35271952 -0.29207999  0.14030122  0.32735707  0.04942056 -0.23714312 -0.04501843  0.43024730 -0.31179919 -0.44164409 -0.49788784 -0.06616751  0.03035301 -0.01839128 -0.43705851 -0.01059616 -0.14353056  0.04155617  0.30210146 -0.38971000  0.27738437 -0.39960766  0.12282392  0.11311184 -0.42331918 -0.15369311 -0.33546584 -0.32739042  0.09759488  0.25099032  0.00408502  0.24487082  0.45890578 -0.35561830  0.07222333  0.00832179 -0.09276597 -0.47279966 -0.06143546  0.09543025 -0.41444835 -0.05932789 -0.47074182  0.11590010  0.42227627 -0.40780490 -0.39470061 -0.22125884  0.13374663  0.40739611 -0.11097361 -0.08887373 -0.49221623 -0.48815438 -0.47576654 -0.41554004 -0.14185206 -0.31123688 -0.24293490  0.45573835  0.43974909  0.26114570  0.20060494  0.39865048  0.40552323 -0.22717602 -0.09303190 -0.18724697 -0.19997984  0.34552854  0.40817923 -0.11443218 -0.21380328  0.43743350 -0.49853593 -0.29153078 -0.47037514 -0.39324036 -0.01279354  0.16336766 -0.48584795  0.37622919 -0.42550965 -0.47806768  0.38807139 -0.40127956 -0.39361104 -0.25378398 -0.21251973 -0.13654923 -0.29804884 -0.27277394 -0.37540674  0.40255276 -0.37412671 -0.46988686 -0.32462660  0.03283804 -0.15713721 -0.02460988 -0.12163691 -0.24896152  0.36095432  0.16455611 -0.31153178  0.36241450  0.37302128 -0.28191103  0.46917003 -0.13977639  0.38145248  0.48331791 -0.26355139  0.45593863 -0.49475400 -0.37548426 -0.44534522 -0.38836932 -0.12927253 -0.15786924 -0.02492285  0.07267431  0.06935247  0.09966606 -0.02477729  0.19522137  0.12977477  0.15059163 -0.27194510  0.47263306 -0.37402270  0.10641357 -0.27633286  0.48692722 -0.22903473 -0.08786906  0.34933730 -0.35601791  0.13021541  0.31850283  0.00420120  0.01166340  0.30181621  0.24064527 -0.03240250  0.30705770  0.36515646  0.02224773  0.41868378 -0.26412066  0.36437386 -0.10624372  0.30854902 -0.06627822  0.49341790 -0.21623258 -0.37106113  0.12318839  0.43435476 -0.14301049  0.09581720 -0.43967223
 -1.67051139 -1.51398198  0.30494460  1.05146028 -2.78772140  0.55042265 -1.33392111 -3.62743841  0.34136287  0.96971077  2.79010573 -1.60551371 -4.05785730 -1.65913718 -1.96582463 -0.44865511  5.40912484 10.08422591 14.40934753 13.47166471  7.73805403 -0.43200493 -4.25891901 -4.33816655 -0.36053969  2.03062288  5.05645388  6.43813152  5.63685975  6.38673829  4.89892139  3.92642417  4.15477106  0.69071487  3.05639002  2.79025908 -1.73613690 -1.20937278 -2.32492177 -2.26716655  0.69862324 -1.33070476 -1.21549356 -2.89365319  0.41066612 -0.89948927 -1.89142866 -2.98987255 -1.99134971 -0.99210116 -3.14891799 -0.68137525  1.91767027 -2.55295254 -1.92740099 -1.08187311 -2.62801505 -3.14755701 -1.72949662 -2.02807928 -4.03355195 -4.26005833 -2.94368540 -2.32054926 -3.45657216 -4.48937993 -4.72901984 -5.42582136 -5.87352602 -6.35122432 -5.23935088 -4.02877886 -4.27828684 -3.62802319 -3.78491086 -3.10898776 -2.72413548 -2.42347777 -2.43175809 -2.70296786 -2.62334950 -2.73243811 -2.75133164 -3.15603491 -3.32787616 -3.86336319 -2.84652928 -2.90342296 -2.86808745 -2.19821571 -1.29122806  0.76780961 -0.39381359 -0.26955084  0.16566300  1.20559702  0.92808270  0.04485548 -2.52886280  1.01119153 10.59845892 -0.58152205 -0.57203302  0.61322344 -0.54391954  0.25955930  1.30757395  1.78623098  1.96902101  2.11123344  0.30329634  0.71095508 -0.13085289 -0.16632039  0.64798962  0.42206124  0.55589215  0.61396256  0.32815548 -0.08739933 -0.27242962 -0.91397021 -0.78243748  4.22355123  2.64331296 -2.87515316 -3.28311575 -3.43696185 -4.07556399 -3.59662477 -3.28875807 -5.49564770 -6.59381007 -5.72120042 -5.20879200 -4.01636628 -3.12379002 -2.65436393 -3.17552527 -3.91800738 -2.38118009 -1.85807755 -1.24885670 -2.46096020 -1.45516322 -3.75577227 -5.79268043 -1.58315728  0.05485905  1.41183136 -0.97027621 -0.17509622 -0.98142549 -3.02503897 -2.17273028  0.08691495  1.26728610  3.24622101  0.05358496 -2.40505245 -0.45812120  1.91781536  0.20332000 -4.51908427 -3.82906751 -2.35369893  4.16871313  5.78757907  6.58276693  4.51676381  5.94670843  6.96208726  7.30066977  8.20042341  9.22265465 10.45048386 10.89211055 10.30168203 12.46040818 14.54342481 13.43687266 12.99815374 11.38549192  6.21675704  0.00894590 -2.76366207 -1.93062414 -3.77911675  0.26050123  3.49830007 -2.56899443 -3.41960463 -1.05271115  1.66542351 -1.64571707 -2.36584479 -1.81082032  1.08251774  2.82856515 -4.27155929 -2.05462284
 -0.17554453 -6.42848470 -2.13179864  1.60592567  3.27082702  3.72958005  3.55144705 -1.89042828 -4.54961753 -4.64435926  2.71883675  3.19638851  2.28955141  3.75404599 -4.80583214 -6.38594923  2.46871630  5.24790279  3.41813285 -0.97719926 -5.42201726 -5.67757490  3.86906936  1.92061933  4.52285269  2.62426470  0.63580067 -6.10099839 -2.62869549  0.25508662  1.55574425  1.02810704  3.56976254 -1.86231007 -4.62256412  0.12314677  2.46866391  2.20004761  2.23136536 -0.21837538 -5.82973499 -1.88602668  2.08809073  0.85982639 -0.22884468  0.75954051  2.30500280  2.63119318 -3.05005460 -3.88656015 -0.24801946  3.11541630  2.13207689 -0.46769307 -5.98531564 -3.34938411  0.79068562  1.84910395 -3.06453522 -4.79177204 -4.19913606  0.85408316  2.53531284  1.21577265  1.59868871  1.44321016  1.63204393  1.13565198  1.13967917  1.57451074  1.12310330  0.89377868  1.54124259  0.35101457  0.99529525  0.10281721  0.84204936  0.34837798  0.51663708 -0.01604665  0.20905642  0.51885687  0.61939131  0.29391321 -0.32248224 -0.30507785 -0.55345262  0.38460201 -0.00153488  0.52254613  0.10329341  0.88650043  0.70705300  0.44401449 -1.60868336 -0.48667577 -1.64374449 -0.84412229 -1.95824676  3.71081808  1.52141003 -2.46508705 -0.30977032  1.61608092  0.30215379  1.60617456 -0.16191640  1.62085650  2.10725864  1.97096061  0.89129763 -0.07149228 -0.03592424 -0.56077512 -1.16415154 -0.47304566 -0.70048921 -1.39069743 -0.62481640 -1.22926682 -0.47295170 -0.37247498 -0.56072475 -0.27712841  0.56782679 -0.45739003  0.21738575 -0.23430102  0.42468207  0.19214256  0.49829244  0.65986728  0.56682449  0.94185771  0.67556270  0.36062782  0.05857909  1.34814111  0.06179117 -6.12471108  1.06649096  0.26357025 -0.64841547 -5.08299371 -0.56954389  2.14078127  3.11613323  1.01229379 -4.58734834 -1.40850805  1.26542555  2.55796493 -1.67318568 -5.11200134 -2.46088561  4.58885157  2.79159346 -3.39872704 -4.34648470 -1.86065516  3.71697675  2.23765733  2.47519874 -0.68105630 -4.12307563 -3.55356726 -3.61343068  2.56798236  3.37090692 -1.39341446  2.25112832  0.10044048 -2.64552482 -5.17277030  0.48102232  3.56998825  2.35713084  0.54135441 -0.59687331 -0.25403544  2.32877524 -5.39001973 -3.32869734 -1.16902002  3.75640679  1.96705036  0.89941042 -1.79550588  1.54453224  3.46928209  2.66763681 -1.45220184 -2.90211103 -5.68160501  1.14479705  2.91840168  2.89367677 -0.65616208  1.47198189  3.63277864 -0.04727633
 -0.16300077  0.09818787  0.07530686 -0.00217633  0.29230364 -0.37096844 -0.37991609 -0.33072539  0.47540672 -0.27726486  0.02092780 -0.25396774  0.09890461  0.17028780  0.06145924  0.15514966 -0.17766739 -0.27762549 -0.37036824  0.18602955  0.43875007  0.00224954  0.10765581 -0.13026409 -0.00801309  0.22962652 -0.47032725 -0.05500733 -0.13332964  0.30389941 -0.38796853  0.20947383 -0.09212259  0.19327392 -0.28645519 -0.29319603  0.32935570 -0.15893770 -0.11620832  0.31278831  0.07208291  0.41326788 -0.43241140 -0.31995825  0.09274958  0.13827793  0.34438492  0.42423586  0.36978493  0.48307733  0.11925074  0.31750187 -0.00574762 -0.26420979 -0.30385423 -0.50477913  0.47443819 -0.26514571 -0.05078543 -0.14993172 -0.45229967  0.07023416 -0.43142678 -0.03535534 -0.22739183 -0.20876315  0.18059033 -0.38890863  0.14143208 -0.42646547  0.43302549 -0.27732453 -0.50400434 -0.49015824 -0.08804095  0.09796923  0.15735882 -0.23442393  0.03145028  0.03638678 -0.24210348 -0.34005090 -0.13684651  0.26142000 -0.09498336  0.06857777  0.26589873 -0.11129259  0.31282490 -0.27528503  0.24853180  0.37021873  0.30478029  0.32729352 -0.15440514 -0.41145503 -0.37000476 -0.46224851 -0.28904310  0.28214068 -0.37868352 -0.34674415 -0.48657300 -0.37486382 -0.32974311 -0.06808153  0.22938621  0.33393660  0.20405557 -0.23226309 -0.12226642  0.46974799 -0.06436521  0.24874732  0.23911502  0.34877713 -0.17440263  0.01328660 -0.25428502 -0.35353285  0.24582276 -0.49812957 -0.47582930  0.05771074  0.33569490 -0.12440149  0.15125160  0.46978241 -0.08337508  0.36487929  0.25425975  0.04011344 -0.47954324  0.27032646  0.16848574 -0.30525664 -0.29283645 -0.09638041 -0.46485238  0.41830680  0.17889147 -0.07940800  0.39595813 -0.37730146 -0.32226149  0.14355155  0.47999956  0.01189636 -0.33457681 -0.26566194  0.16703059  0.41996846 -0.25502608  0.19999470 -0.01351606 -0.41050854 -0.41555592 -0.35335725 -0.43179372  0.01001644 -0.47952595  0.33145360 -0.44084897 -0.45002985  0.11082919  0.23672586 -0.24615836  0.32715117 -0.35047968 -0.20182978  0.25463158  0.33759252  0.22795905  0.15982149  0.46954346  0.41494903 -0.18737955  0.45879195 -0.06391431 -0.01271675 -0.29765827 -0.38768722 -0.08347011 -0.04326241  0.32187010  0.41263266  0.05588329  0.41609927 -0.43079393  0.13411080 -0.06398951 -0.40058812 -0.02492802  0.00455206 -0.34142438 -0.40501242 -0.24967168 -0.07836158  0.43159295 -0.09065621  0.22914517
  0.20123935 -0.23821603 -0.02812463 -0.13015619 -0.25993406 -0.10446683  0.19114346 -0.29250516  0.34023646 -0.31297201 -0.08157447  0.46113366  0.11203829  0.38347887  0.29117055  0.03268607 -0.05282475  0.21479319  0.10909214 -0.41181207 -0.34245833  0.21508507  0.06975442  0.16852949  0.38012794  0.17121431  0.42527140 -0.19198905  0.10879343 -0.15953475 -0.45702980 -0.19010121  0.10211794  0.01471694  0.17961589  0.34205713  0.41012447 -0.12936644 -0.45057176  0.25023871  0.05754097 -0.03226613  0.21125137 -0.33054189 -0.14891090  0.00229484  0.20201302  0.29812928 -0.28304885 -0.18903205  0.38618017 -0.12564499 -0.47408609 -0.04420722 -0.45725910  0.40589773 -0.37313920  0.46786605 -0.28623773  0.23550788 -0.19181388 -0.24341280 -0.45473904  0.41015641  0.27115569  0.22472833  0.25206544  0.18113117 -0.40478576  0.30134614 -0.06877931  0.15260591 -0.23106977 -0.35767802  0.32191328  0.11986726  0.14446550  0.02377504 -0.08215342  0.36126613  0.33459216 -0.19612468 -0.26453015  0.36035463  0.25951637 -0.22194081  0.26610046  0.38622333 -0.25422968  0.47970961  0.12158177  0.05380848 -0.26385091  0.16669550 -0.03618138 -0.49284338 -0.10872768 -0.28427203  0.18812593 -0.01368072 -0.48310419 -0.38080489 -0.36120990 -0.21428537 -0.23860604  0.46057699  0.40545052  0.40572243 -0.01578870 -0.17684508  0.26684657 -0.18133792  0.12688967 -0.49782180 -0.32111774 -0.11372629 -0.21989506  0.44484909 -0.22763426  0.02574583  0.42442917  0.39381765 -0.42057552 -0.33955281  0.06038154  0.04311187 -0.33252500  0.45152797  0.25871821  0.35548635 -0.06225839  0.27552459  0.47457471  0.07641839 -0.43888324 -0.26416042  0.03686220  0.46643368 -0.35857112 -0.47905922 -0.21054376  0.40814303 -0.16052978  0.41621356  0.41018731  0.01821681 -0.19764903 -0.30984453 -0.03707212  0.07457742  0.21576120 -0.11278345 -0.03174527  0.29504459  0.04752243 -0.47150654 -0.16198715  0.21485337  0.47987793 -0.40341399  0.07019408 -0.08252704  0.37196315  0.04462012  0.49374164  0.43292953  0.28030779  0.03045093  0.39921200  0.42158857  0.05124464 -0.31147826  0.32958470  0.39056851 -0.39541224  0.23962277 -0.09136518 -0.09321132  0.42962766  0.37141140  0.48121345  0.14523591 -0.24152489 -0.05068255 -0.05986789  0.30585248 -0.02233555  0.27799931  0.02056010 -0.04260278  0.37443986 -0.40939210  0.37472203  0.24625336  0.13507925  0.36831551  0.17903741 -0.08475532 -0.10137488  0.07810792 -0.16330974
  2.60106075 -1.15751268 -2.49524781  1.05406916  3.01488583 -0.25754043 -4.08476465  3.60558362  1.30722911 -0.09747979 -5.67508760 -2.44304647 -0.75142029  2.81131623  0.09010556 -0.20375979  0.05161009  3.65784785 -0.41928960  1.20425264  0.76212976 -2.38278417 -0.62274221 -3.57574427 -2.74931690  2.64084251  4.69136485  1.09670629 -3.54672432 -3.02357285  1.61615148  1.47528644  1.03960409  1.96048196  0.62198672 -5.88422960 -4.65932770  3.19019982 -1.25919893  2.86735975  1.02343829 -0.20915382 -1.39829400 -0.80789511  0.31416658  0.67079580  1.87549260  2.71399038  0.89499657 -3.58504967 -2.51974007  0.85121207  0.78252677  1.06645396  0.40508816  1.06878949  0.87005260  1.09040489  0.96503989  1.66817679  1.78265644  1.42899946  1.82165212  1.97919369  0.75389441  0.00135517 -2.08051207 -4.48148498 -2.79896150  1.54176566 -3.18384029 -1.01329621 -0.52283095 -1.39720949  0.18956887 -0.14835985  0.23569884  1.30941485  0.85626057  0.45339660 -0.05644432  0.54498902 -0.18790889 -0.27650164  0.34121017  0.09531506  0.54270177  1.08341544  0.93496353  1.58618524  2.12577282  3.16351893 -0.86608007 -0.26891285  0.25059557  0.05753772 -0.07458735 -1.91153901 -1.22935437  3.95469605  1.12987830 -2.46053335 -0.33585261  1.37524949  0.85558312 -1.14773586  0.36659492 -0.21936033 -1.12693840  2.74263238  1.27068904  0.27392548  0.83457970  0.69822481 -0.01314616 -0.40989026  0.15831459 -0.20993341 -0.16955401 -0.96930466 -0.65325299 -0.50395292 -1.19481616 -0.52959771 -0.66240606 -1.46405805 -0.23367471 -0.12872631 -0.44707737  0.29429038  0.07685626 -0.34678230  0.13489011  1.44600299  0.43538655 -0.03650692 -0.34225530 -0.48911617  0.13405751 -0.12728978  0.25346565  1.14826552 -0.17653488 -0.52935757 -0.87060401 -0.59868660  0.79271380 -0.43416149 -0.45381399 -0.55003526  0.62996308  1.61787871 -2.40938306 -2.49716362  0.25200296  0.61499604 -1.55151134 -0.56216610  3.17255104  4.02576385  1.40931767 -6.31424304 -3.82138321  1.11013139 -0.77639328  1.49706898 -0.50875085  0.85469358  2.03942232 -4.63233281 -4.53634082  1.33120982  0.79717136  4.07885792 -2.31475298 -5.49390721 -1.11962947  6.21736030  0.99255991 -2.91530108 -5.52818177  0.96453133  3.26756929  3.32936240 -0.17109781 -0.46036913 -2.77651415 -3.68102589 -4.09977334  1.02530251  6.16156833  1.32505974 -1.24606350  2.91535500  3.63655078  1.46718977 -2.00757729 -5.21542260 -2.64396955  3.02056825  2.41069085
  0.25243231 -0.44368788  0.30177101 -0.52312600  0.42625837 -0.39584064 -0.17444886 -0.59077876  0.03071191 -0.05126243  0.42484345 -0.67825657  0.99466647 -0.24927357  0.02650935  1.30916876  0.08025757  0.43277804  0.02162172  0.28270611 -0.13960812  0.77759957  0.11940398  1.02194799  0.49592230 -1.53014264  0.27408484  0.83107315 -0.52608591 -0.30878657  0.71207804 -0.26761405  1.17962396  2.38217177  2.44051330  1.33291803 -0.34845304  1.86515159 -0.66549659  1.43264459 -0.25333316 -0.17671939 -1.14773894 -0.33680044 -0.29560295  0.33410503  0.36973337 -0.47139195 -0.84005340 -0.54041829  0.51468840 -0.85172083 -0.29621961 -0.04277281 -0.47975112  0.23767008 -0.87232900 -1.01796178 -0.71275812 -0.35593655 -1.06432534 -2.01991406 -1.85834305 -2.51942668 -1.44351891 -1.93741238 -1.16583678 -1.32971759 -2.01637105 -1.71068797 -1.51986519 -1.28839360 -0.66440095 -0.87067562 -0.76174830  0.39032856  0.03127468  0.02204580  1.17471143  1.14078850  1.02041079  1.33316466  1.68267348  1.49170075  1.80291603  1.60022983  2.53177309  2.65822484  2.62627975  2.12483754  1.82800270  1.88747641  0.31396195 -0.32707393  1.08845851  4.60502555  2.75541079  1.41981825  0.16852367  2.50921743 -7.13291466  5.92663817  2.62680680  3.49944317  6.03285686  2.37634658 -2.42268420 -4.00599809 -2.99274989 -2.20635630 -1.63692042 -0.69689503 -0.43903690 -0.32299891  0.13588570  0.44262589  0.20161313  0.46094026  0.83935306  1.20360263  0.88212480  1.29229402  1.14535069 -2.45781595 -2.38335418  0.39194102  0.00937467 -0.22307787 -0.71917186 -1.21192983 -1.91507368 -1.10048007 -1.38819825  0.61405337 -0.70312026 -1.24167107 -2.28152760 -1.62497552 -0.90498729 -1.30104253 -1.05366256 -1.41156316 -1.86763190 -3.28259860 -1.79279814 -2.34450477 -1.69637869 -0.24919728 -0.22467584 -0.56883769  0.29567407 -0.12334960  1.14650538  1.00512403  0.25767964 -0.85585778  0.22449648  0.92739258  1.10703764 -0.50733187 -0.24268362  0.74897306  0.85784222  0.94705410  1.08688221 -0.35508238 -0.70907377 -1.06734443  0.34717030  1.36040898  1.24130963  0.23648030  0.26128764  1.53781765 -0.95272317 -0.01682117 -0.25821088  1.39697686 -0.45621717  0.35173149 -0.18120644 -0.13952121  1.23810712 -1.12991011  1.09186060  0.98427074 -0.02975522  0.33905605 -0.41950090 -0.41606668 -0.43908507 -0.63237480 -0.66558814  0.14948799 -0.05465074 -0.77222115  0.61936953 -0.41174677 -0.11032729 -0.91178805 -0.12628680
 -0.14511275 -0.10380815 -0.10508995  0.00154987  0.17614798 -0.13522666  0.46417507 -0.40278438  0.12367828 -0.31589451 -0.19495689 -0.42285365  0.19716306 -0.26856315  0.09088949 -0.20851617  0.25209947  0.49318345  0.24269274  0.25696513 -0.48661063  0.05636702 -0.24270165  0.05711916 -0.21502328  0.25429402  0.03771177  0.35856459  0.06005202  0.34548459 -0.38085090  0.41560566 -0.25785219  0.01415534 -0.08311502  0.41784690  0.37852436 -0.11915869 -0.48519209  0.00172284  0.06444289 -0.18061793  0.07869786 -0.23840754  0.05085156 -0.33035182  0.05359983 -0.19604337 -0.33594566 -0.20260436 -0.43816484 -0.32173817  0.35463831 -0.17992844  0.23634245 -0.35916630 -0.42420805 -0.22448259 -0.49915185  0.13727647 -0.37753327 -0.37855652  0.05433502 -0.13400245  0.13685488  0.47263341 -0.21470821  0.01686526 -0.14511548 -0.19855415 -0.47991615  0.42081864  0.12225099  0.10005911 -0.31624952 -0.32536217  0.27121693  0.23878095 -0.02014594  0.43657722 -0.46243306  0.04308217 -0.38385070  0.39361770  0.36460984  0.35391822 -0.46417015  0.44168257 -0.36940087 -0.46226422  0.08007836 -0.24562221 -0.33928647 -0.36380393  0.12218676  0.29925043 -0.38989898  0.40807369 -0.18311161 -0.03421486 -0.29066227 -0.16176486 -0.11175250  0.33473692  0.44018813  0.07411375 -0.48847628  0.21301301 -0.18586713 -0.00760342  0.15059222 -0.14717256 -0.46314187  0.26830884 -0.25196989  0.40294396  0.12358072 -0.21483005  0.34597521  0.25565545 -0.17552403 -0.07237633 -0.48849400 -0.01352586  0.06494253  0.13470584 -0.21320011  0.17635972  0.04461809  0.10536095 -0.35588213  0.25748750  0.44541981  0.03412087  0.09399038  0.38685851 -0.39076594  0.10648491  0.10092480 -0.07540688 -0.39969399 -0.24694804  0.27895313 -0.36145581 -0.47736163 -0.47176131 -0.45719656  0.14757592 -0.18518032  0.39012171 -0.09548970  0.14048058 -0.18100889 -0.08267885 -0.37169180  0.38530091 -0.44652613 -0.08341972  0.06323781  0.09969509 -0.47640003  0.20886264 -0.14145137  0.47028145 -0.25574421  0.45378299  0.35842611 -0.14519352  0.06171640 -0.03914631  0.28092807  0.16356741  0.21550639  0.06147261  0.30372164  0.23975888  0.09130086  0.34810097 -0.11122669  0.40743651  0.23964636  0.29492796  0.04972481 -0.43950725 -0.28614582  0.17917137  0.44653233 -0.23211787 -0.40371599  0.00985408  0.36722807 -0.38057429 -0.28110347 -0.27303944 -0.40807157 -0.03398260 -0.31614180  0.45336905  0.32372429  0.24826959 -0.08336660
 -0.06836415  0.71647128 -0.00961675 -0.45326332 -0.21207400  0.18717710  0.97132248 -0.15760279  0.20746435  0.67115282  1.02074652 -0.43893502 -0.91238258 -1.31482993 -0.96895007  0.17056115 -0.04147386  0.14579548 -0.05204967 -0.57721395  0.18188377 -1.21135738 -1.30263650 -0.41156166  0.61997265  1.26549312  2.06055866  0.62963430  0.70963778 -0.20191541 -0.23676386 -0.04832827  0.15857729 -0.41287405 -1.02954304 -0.36158183  0.10409831 -0.81702169  0.25454315 -0.47869481 -0.28661630  0.33515935  1.36843514  0.31399752  1.14504464  0.57599035  0.70782852  1.32464461  1.22884056  0.91397945  0.70203012  0.49828955  0.71674922  1.11181674  1.15427172  0.58343942  0.74174108  0.65329219  0.64271608  0.50363052  0.26256313  0.37672340  1.06358323  0.30632649  0.11366383  0.70800270  0.56475001  0.76460948  0.16236378  0.82184379  0.47675387 -0.10695956  0.44431201 -0.22360522 -0.47014289 -0.30220558 -0.69538481 -0.95109710 -0.94822835 -1.01259483 -0.55773834 -0.61090085 -0.82563932 -1.54087543 -1.49844180 -2.04128296 -2.56660784 -3.70911511 -4.25639339 -4.12215202 -3.18810473 -2.06366658  0.92072983  0.33576958  0.91486677  0.95614049  1.54765941  0.02844508 -1.93470055  0.66529881  4.14034833  0.81007137 -4.77892416 -4.36365908 -2.03296362 -1.28603836 -1.43364836 -1.83604171 -0.18319212  0.58159344 -0.51717861 -0.55267854 -0.86715701 -0.53251496  0.01374260  0.13051033  0.47485148  0.18679514  0.61749313  0.56433403  0.14942722 -0.42401285 -0.96041734  0.85282245  0.42943646 -0.62378115 -0.23975721 -0.65060237 -0.14614039 -0.45186433  0.05418920 -0.16161077  0.44105950  0.26478776  0.22891540  0.54035631  0.27572757  0.81796771  0.45879821  0.41445739  0.50751680  0.57872240  0.48226649  0.58153981  0.55420413  0.68550208  0.39116798  0.81692797  1.45284068  1.65657276  1.04235997  1.41341349  1.08858462  1.22267010  0.71991101  1.01905643  0.55892954  1.16591834  0.50502057  0.44311598  0.00825840 -0.86186158 -2.56027914 -1.54224424  0.31545769  1.05799433  1.27867010  0.72411153  0.05021952 -1.03452719 -0.32579967 -1.37050729 -0.34350327  0.61106238  0.59979915 -0.28788837 -0.11950810 -0.72217249 -0.25763262  0.62931480  0.63321546  0.77079237  0.45903325  0.01341472 -1.24073724 -1.51073188 -0.69438045  1.01970263  1.53004833 -0.49239449  0.36245256  2.06609165  0.32357596 -0.20891716  0.08405416  0.63710754 -0.12419026  0.60426038  0.88444624  0.73247112 -0.25886921
  1.79173204  0.72683588 -1.16626164 -5.06302671 -5.51520201  1.73144537  3.43909400  1.39963928  0.13775809  0.84872628  0.88452679  2.52526704 -0.61331013 -6.19441998 -4.45905313  3.49963253  1.73315315  0.78297088  2.44394967 -2.32438125 -4.64427470  2.55266395  3.69983073  1.03393983 -5.21171396 -5.18618797  0.53422555  1.76904458 -0.98707263 -0.96934351  0.72968779  1.16370779 -0.44845624 -0.84608217  1.26534563  2.22208335  1.58417520 -3.14509116 -5.86071887 -0.70266095  0.29321150  1.62337938 -0.76564823  2.13466129  3.01734133 -2.47902400 -5.17645857 -3.84550958  2.74458871  1.01261312 -0.61267774 -6.77181039 -0.07800695  1.77015037  0.68058164 -1.37170224  0.03122057  2.64429726 -2.80699174 -2.06453159  2.24140811  1.72567386  2.14991473  2.08097894  1.28497658  1.48453364  0.64830625  0.93897876  0.76492501  0.83643046  0.77027159  0.96739728  0.17631344 -0.29522130 -0.07980847 -0.03930692  0.41592028  0.39767282 -0.53896391 -0.20361223 -0.37677088 -0.97680507 -0.59333407 -0.45711981 -0.55039495 -1.30229937 -1.31046813 -0.65826224  0.59927191 -0.04130121 -0.39006750 -0.36005294  0.90764789 -0.47899265 -0.08386910  0.37846204  1.00304004 -1.83829586 -2.92448934  1.00753790  1.64555453  0.67336106  1.45365211  1.18331020 -0.09138224 -1.44218884  0.45235009 -0.18242247  1.31987482  1.49902738  0.74158094  1.67054468  1.64478999  0.48967957 -0.37105952 -0.78141201 -0.86798999 -1.01388766 -1.98726700 -1.29971017 -1.68945378 -1.21541880 -1.01129327 -0.42960656 -0.00928563 -0.85633334 -0.94923606 -0.94160351 -0.47708979  0.09814741 -0.54206327  0.66017031  0.57091406  0.87118613  1.32996048  0.42269642 -0.21783471  0.00917751  1.02636212  1.12900186  1.20147581  2.09696853  1.65787271  1.21976229  1.51941989  1.20755522  2.38299203  5.17503877  2.22523218 -3.06620737 -5.42558169 -2.63253750  2.28655769  2.92050172 -0.50965217  1.84613140  1.82728570  0.62654996  1.43544823 -4.41493429 -4.72366642 -1.68147708  0.56380723  2.57950960  0.80607468 -0.91503132  1.44979226  0.29284606  0.92683138  1.64249592 -0.97753706  0.98866371  3.02356499 -3.93932670 -4.45237744  0.06948599 -2.08483187  0.26562868  1.59328905  0.10512446  0.81356199  2.21339295  2.28493918  0.38126083  1.05890653  0.42411288  2.72157641  0.30194699 -2.61335110 -4.31626118 -3.29507607  2.10499851 -0.44665214 -0.33897987 -0.56797797  2.20259794  0.28962688  2.92133341 -0.83858269 -1.80295325  2.21892944
 -1.36217653  2.40881464  3.43005356  2.65251522  2.14395361  0.24445743  0.68243594  2.30414077  1.42212904 -2.55537136  1.88396941  3.96053631  4.14065246  5.23803386  3.00462582  3.83835981  4.14764663  3.46724014  0.30604621  3.79379903  6.19945074  3.15046953  2.64470977  2.48608376  5.35028747  4.11448430  4.29268175  4.05686155  2.64213751  2.85579946  4.31622590  3.50614217  0.79302202  5.10783617  0.75852165  3.33318393  5.30896393  2.63320387  5.03363311  0.44267249  9.19394735  1.59397892  0.88108374  1.92291992  2.51852577  3.09432598  2.61332595  2.24194619  4.22295120  5.69077147 -0.00701297  3.37789126  6.74342275  8.70798253  4.38143744  0.50997260  2.05249735  2.34138440  2.81914544  0.93790561  4.83757649  6.31940498  5.39698233  8.84724404  2.94408770  6.08641582  5.83996573  4.08001043  6.51768704  3.54031730  5.68894675 10.49513104  9.09580055  3.13235415  0.51458249  5.34594019  3.14809525  0.22677492  0.41922284  1.77896960  1.56537301  2.07629767  2.30632030  3.38314696  3.49096403  3.55527318  3.76695820  3.66942991  3.58477490  2.55188000  2.49917801  2.06052732  2.83035883  2.94406969  4.90709342  6.81731591  9.28430162  9.31804141 10.51445710  1.11137732  0.23934249 -0.61537988 -9.11717603 -4.27387014  1.92523427  0.58626736 -1.23288996 -3.07859397 -3.14053528 -3.97809584 -2.80832962 -3.03702551 -2.09180731 -0.97923812 -0.45763806  0.10927797 -0.20595658  0.28523319  0.72725287  1.38512086  0.89440604  1.42691032 -1.46303909 -11.4505029 -2.05936384  0.93769436  1.84273491 -2.65161304 -6.44273187 -9.27185830 -5.72801593  0.05518674 -8.15660293 -6.74033662 -2.39117189 -6.60406453 -8.37322017 -6.94029789 -6.14253074 -13.0524198 -9.42927413 -7.71199492 -5.90452924 -9.98659533 -5.91274694 -10.0077499 -11.0939601 -7.73143329 -7.57737451 -8.81426417 -6.84390684 -7.21634167 -8.36657619 -8.52112170 -8.52208123 -8.79262787 -7.03653162 -8.34141114 -9.63175680 -11.3712848 -9.47514682 -6.90402573 -7.52527623 -11.6749055 -11.5843987 -7.95900719 -7.66749008 -8.01863259 -7.87996160 -7.07338320 -5.42092127 -5.09680625 -4.21007181  2.19831145  9.81377909  7.41443376  2.58489582  0.42570295 -0.80571533 -0.21699925  0.09912899  3.12473675  1.31808689 -2.05478795 -0.51067907  2.03271259  2.09078584  0.26825866 -0.35587623  0.89835492  1.35681531 -1.91031703  0.62495381  1.23448349  0.42704486  2.36174630 -0.47844609  1.86399781  3.47613854 -0.89998461 -1.25644282
 -1.10543652  1.39225686 -1.72670461 -1.29969912 -1.82618467 -1.10016502  0.19774273 -2.16950401 -1.20755018 -2.27870305 -0.68260663  0.30783116 -1.77904950 -1.00187177  1.03597539 -2.29633414 -1.28921324  0.01102931  0.65644223  0.06262124  1.08006484  0.70757503  0.59981920  1.41161100  2.35671057  1.15636982  0.61360601  1.71545903  1.23064930  0.47072478  0.68924495  0.25768641 -0.84330952  1.72696727 -0.26370669  2.10246501  1.42499283  0.34550199  3.54182435 -0.12502030  3.02996454  1.33761859  0.08562623  0.91670288  0.00128861 -1.53676888  1.29847836  1.56183079 -1.16004102  0.97878501  0.55754703  1.88216568  0.87891575  0.52638714  2.01519523  0.02520955 -0.11188525  0.18174188  0.84768687  0.17032598 -1.15180161  0.84003477  0.25317743  0.14321716 -0.27437838 -0.51548109 -0.35273555 -0.36700387  0.27882317  1.67999582  0.44651711  0.69015402  1.58227561 -0.96081669 -0.45252854 -0.22800297 -1.15301692 -1.46088479 -1.36431673 -1.76837737 -1.71447566 -1.21859451 -1.42836690 -1.81207630 -1.31765565 -1.29342686 -0.98265698 -1.18927292 -1.17852289 -0.68053050  0.70769188  1.35419721  2.22885240  4.21051658  4.61284944  4.63269775  2.44174480 -4.21896243 -9.66856760 -4.85747224  3.12693566 -15.7664950 -11.3282003 -3.53538904  4.58107351  7.96639275  7.91815363  6.20235981  5.44783675  3.05811949  1.99783263  0.05966702 -0.55934531 -0.82895468 -0.77739369 -0.98270263 -1.38763765 -2.17134797 -1.75072332 -2.96015712 -2.52971681 -2.42918343 -3.06413084 -0.66572310  0.50867708 -1.35984954 -1.98589167  0.21139917  0.13939678 -1.58250609 -0.53021946  0.74607522  1.10202921 -4.49519460  0.82085841  0.40661134  0.42977560  1.32575339  1.94789367  1.03035369  1.09037002  1.99756755  1.39630421  0.27337673  1.62648350  1.66672829  0.26199216  0.91769145  1.96849118  0.99881806  0.01911604  1.20352240  0.46696863  0.90745273  0.17556101 -0.00577831 -0.01012713  1.28377551  0.35234346 -0.89574928 -0.40326066 -0.44146980 -0.56383701  0.91840425 -0.46795464 -0.27021542  1.00707885  2.75968347  0.02697957  1.17420353 -0.02801220 -0.94661771  0.24183664 -0.11651285  0.18010593 -0.21094067  0.54776559  0.95226616  0.45814095  0.44989929  1.35663632  0.37778882 -1.91164667  0.87125856 -1.10103054  0.03402627  0.04187439 -0.53301389 -0.69822465 -2.05898819  0.53630408 -1.38380449  0.16159706  0.53412665 -1.99596353 -2.12387969 -3.62817596  0.27977978 -0.17720399  1.46530220 -1.17499747
 -2.23020224 -2.65459384 -1.49437785  0.12985703 -3.57069771 -1.30033720 -1.22836821 -1.84266570 -1.33744242 -1.22119586 -3.63007315 -0.47869531 -1.97690911 -3.61749183 -2.28236809 -3.36613832 -1.51983297  1.74871576 -2.58954531 -1.86982777 -2.41564110 -7.36492234 -0.44887615  2.40473693 -1.21423890 -1.72328968 -2.00625990 -4.16630250 -3.68703644 -0.14525483  4.49535801 -0.78944526 -2.61757360 -1.83067451 -4.56780591 -5.90093087 -1.87437647 -0.40894046 -1.43400946 -0.57917309 -2.46461907  1.30627028 -2.14611510 -2.25579002 -4.90944408 -6.19429616 -1.79870497  1.99739514  1.21786643 -1.43182152 -1.50981620 -1.29318469 -3.26943746 -4.72530083 -3.50067611 -0.86989582  0.44782786  1.25213159  1.01127657 -0.72282276  1.80755382  3.01071236  2.38898652  3.08232414  2.98344676  3.63586650  2.35620584  2.95919240  3.48474393  3.75350192  2.98376493  3.05395755  3.27563524  2.82930729  3.22505220  2.78176666  3.11317307  3.51734183  3.75758007  3.79407668  4.04716662  3.43424037  3.88124644  4.43366131  4.94150141  5.19001963  4.93825211  4.13234118  3.08179257  2.50414855  2.47126406  2.49943391  1.51125033  1.44573928  2.12579190  1.02489766  1.28112185  1.09707797  0.25904118  0.76596365  5.82117466  2.69252166  0.51386530 -2.85452675  2.49140324  3.96404372  0.93040994  0.53834324  0.61049317  1.31036407  0.55544110 -1.06916277 -1.06226291 -0.98487251 -1.49732787 -1.47852617 -0.45030911 -0.45857094 -0.29260423  0.11064816  0.23816625  1.32820099  1.68044204 -2.78213008 -1.55553006  2.86922792  3.76673791  3.11273436  2.59060645  2.62478829  1.87366388  4.20484765  5.42082781  5.03061015  4.91336112  3.77563270  1.12040585  2.90429392  4.18391972  3.27314773  4.25307861  3.55144837  2.03969072  2.24480156  1.39242439  0.70474198  1.01990443  1.28072754  2.31176362 -0.85383035 -2.52545337 -1.57430160  1.02409764 -1.38107140 -2.14293146 -6.20126489 -4.72203375 -3.69915197 -1.96414861  0.36100209 -0.35735461 -1.90407077 -6.13749597 -4.21097093 -1.31924602  0.93803521  0.13821386  0.90959420  1.14320049 -0.81634868 -1.24906971 -1.69829050 -3.24600421 -0.55411030 -0.03574824 -1.55783226 -4.33829901 -4.72697400 -2.86901789 -4.75880652 -1.02633055  3.88604606 -1.45465394 -2.02844716 -9.18890809 -1.50333901 -2.00648874  1.47972350  1.15809650 -6.96125864  0.05017572 -0.20223201 -1.35916313 -2.54401869 -1.16020436 -3.05823711 -2.89400080  1.23251984  0.36456464 -2.14577335 -2.21106877
  0.68983140  0.23418077  0.06360292  0.19343155 -1.54103879  0.87101587  1.24652793  1.40267734 -1.01206382 -0.05578167  1.97988184  1.16263411 -1.62268566 -2.63249309  1.47989388  0.08603984 -1.83444567  0.57567216  0.99589097 -1.52531922  3.46818600 -3.20570407 -5.25024135 -3.11652926  1.78836041  1.58072539 -0.30874513  0.91421655  0.33296801 -1.25566221  1.39595009 -0.63302612 -2.09943306 -1.98434401 -3.35370613 -1.24726549  1.26745567 -1.31309648 -1.93796733  0.44402129  0.98138178  1.37012886  0.96152634 -1.75650353  0.02362416 -1.31298652 -1.95197568  0.21823389 -0.16017252 -0.26324754 -0.90614977  0.24125204  0.53016314 -1.06020356 -1.79134039 -0.21784234 -0.43826167 -0.86074314  1.06384717  2.02132304  1.85068287  2.04880404  2.04972830  2.84162917  2.95485748  2.88878100  2.63258450  2.87081303  2.53883070  2.39679544  2.72284684  3.07103380  3.22459360  2.45714848  3.03513958  2.04280048  2.55562507  1.45424116  0.55142532  0.58990586 -0.87693541 -1.36987517 -1.90602975 -3.61047574 -3.90730915 -5.43658177 -4.45280407 -4.52326949 -2.88746610  1.95612366  1.51673869 -0.18037774  0.24845483 -0.16574534 -0.43245800  1.80832521  0.54694215 -2.37657995  0.33165389 -3.20202665  1.23441965 -2.88516360 -0.28732595 -1.03850206 -0.27521893  0.09817025  0.21801445  1.01252704  1.30091271  1.08830411  2.05145647  3.64006904 -1.19613650 -4.04109358 -3.11514450 -3.44128394 -2.37643855 -1.97672254 -1.37719305 -1.41734502 -0.58733973 -0.10665857 -0.19388940  0.20436948  0.39472335  0.66419775  1.13119372  0.89101595  1.31404247  1.21034128  1.29874011  0.87213734  1.48027431  1.34879154  1.21546307  0.73122272  0.92833631  0.28200282  0.52396709 -0.29024636 -0.26255290 -0.33625930  0.37475079 -0.12256131  0.72345037  0.34355308  0.41905399  0.06862285  0.58311229 -1.30720261 -1.17979524 -1.17527130 -2.62363383 -1.95044678  0.17859764  0.98933653 -0.08746829 -1.90187328 -2.25198908 -0.60218742  0.70047124 -1.39896366 -2.51848207  0.32452567  1.84493172  0.26173975 -1.38581491  1.47154242  1.00497017 -2.47502895 -0.67577616 -0.49116355  0.04427977  0.51172545  1.25196860  0.90745673  0.20145047 -0.93836424 -0.78597293  1.68015585  0.15558264  2.12727797  0.95842838 -0.51257296 -1.61901373  0.18032353 -1.40144867  2.57594890  2.03498773 -2.14813353  0.53572190  2.04583883  0.21438355 -0.01532377  0.07421632  1.33944363 -1.24291829  0.83712477  1.62560901  0.36929713  0.12498358
  0.39691257 -0.48909740  0.03971563 -0.46448350 -0.19119937 -0.15953070  0.25678398 -0.18868090 -0.08475456  0.14425526  0.23970293 -0.49449255 -0.12101774 -0.16568338 -0.12703219 -0.37458959 -0.28191252  0.28700947 -0.06845089  0.09958929  0.38133564  0.29305121 -0.46177943  0.31335828 -0.48845027 -0.32073274 -0.26977698 -0.09793091  0.18086176 -0.07800306  0.26599955  0.09329584 -0.05210004 -0.17948068  0.14343713  0.27132059  0.17532264 -0.08540065 -0.40308607 -0.39547863 -0.42724306  0.35008926 -0.37655309 -0.03521132 -0.30238183  0.00983979  0.10396893 -0.07033550 -0.18903533 -0.44999588 -0.45624442 -0.29314085  0.35754369 -0.40332766 -0.46509478  0.38357241 -0.20942339 -0.22013503 -0.19926246 -0.51348578  0.21667444 -0.41868695  0.09442364 -0.32059143 -0.08343643 -0.24727462  0.46554970 -0.39316291  0.18210096 -0.42294678 -0.27386994  0.26962768  0.44208097 -0.13539813 -0.25051767 -0.34503493  0.38937392  0.36840070  0.09935542 -0.28481933  0.43314775  0.15795096 -0.06312286  0.30554356  0.26953695 -0.01321210  0.20435587 -0.42461325  0.28190915 -0.47990904 -0.42328317  0.01345166 -0.38350993  0.18657408  0.20866394  0.04911057  0.45538226  0.19048162  0.17333257  0.15845337  0.29194972  0.41730607 -0.06092163  0.24023649 -0.20701115  0.20301726  0.41055423 -0.30202042  0.08706263  0.02559914 -0.07084116  0.03650569 -0.30002588  0.38235986 -0.14176452 -0.51436620 -0.11468415 -0.42119338 -0.42278612 -0.31660332 -0.38485638 -0.32968863  0.21330082 -0.25203482  0.37313126 -0.06203142  0.31306425  0.34413725 -0.35644106  0.00015186  0.01289387  0.44229761 -0.07062378  0.46694175  0.19856497  0.23871041  0.18636161  0.12535746  0.45309156 -0.21019289 -0.33257103 -0.10137855  0.34270020 -0.11655030 -0.20296816 -0.28303889 -0.11470835  0.19850390 -0.18814459 -0.02148578  0.39788697 -0.05704135  0.16462269  0.12691555  0.20673722  0.05350268 -0.41935675  0.03555518 -0.08660618 -0.25994972 -0.44843511  0.44220948 -0.30180404 -0.00319209  0.42500199  0.41237142 -0.24886247  0.12709455  0.05346736 -0.27998954  0.43284793  0.23667193  0.13422936  0.29103102 -0.36429535  0.44687224 -0.47629285  0.03667936  0.16112391 -0.14855834 -0.46903526  0.07470995  0.31022976  0.21143720 -0.28262751  0.03239457 -0.21975701 -0.18704271 -0.41707894  0.20876326  0.06826304 -0.35051742  0.16587124  0.28163979  0.16187695  0.10676836  0.21010851  0.42925519 -0.24969626 -0.21952242 -0.33354970
 -0.28846553 -0.45486629  0.32832467 -0.48135489 -0.30350120  0.29045487 -0.44280061  0.24779747 -0.03387706 -0.07685915  0.29316972 -0.44499709 -0.25256239  0.01910081 -0.21264583  0.29519870  0.31511368  0.11672589  0.39495315  0.04099170 -0.29737762 -0.43758580 -0.27515707 -0.49797554  0.24180706  0.34880424  0.22913622  0.18799683 -0.38418369 -0.47418915  0.37014933 -0.16856411 -0.42511419  0.20240986 -0.14589556 -0.22421535 -0.00223815 -0.08323322 -0.47035363  0.47045155  0.34707805  0.33076499 -0.46586433 -0.39627593 -0.14059597 -0.16878017  0.40896565 -0.31529531  0.45818017  0.31416263  0.23587106 -0.32912120  0.38658500  0.47070777 -0.31708073  0.13853663  0.32979174  0.42238803 -0.16312321  0.45593209  0.45848613 -0.28268517 -0.20234784 -0.45635184  0.42998474  0.16203229 -0.17027481 -0.06190113 -0.41082506 -0.13025133 -0.08104853  0.44668000 -0.28906924 -0.03651772 -0.43920539  0.08075504  0.30510564  0.48019248  0.27587936  0.27373322  0.30481684  0.02220195  0.45501526  0.20182928  0.00334536 -0.35164380 -0.14915823 -0.15664418 -0.41926610  0.19866389 -0.18830059 -0.44729293  0.42915932  0.12197306 -0.39134785  0.37108631 -0.20450493 -0.05065512 -0.18036169 -0.10546149  0.32843101  0.24849961 -0.14829812 -0.44962050 -0.27769714 -0.07775177  0.14028848 -0.46389663 -0.08931100 -0.07594982  0.31736658 -0.27745490  0.45293191  0.27993816  0.43333236 -0.03368845  0.43823815 -0.20624723  0.31946860 -0.47103466 -0.49866060 -0.36116018 -0.41154005  0.43649863  0.26609244 -0.29818186  0.31186357 -0.43439517  0.15509517 -0.36448898 -0.03553773 -0.01172556  0.38820259  0.32009114  0.04248176 -0.38555470 -0.25343669 -0.31254280 -0.34423887  0.16317979  0.11821793  0.48071540  0.39449717  0.08106451  0.27055637  0.33747917 -0.44295589  0.21850474 -0.35899079  0.38631956  0.25730594 -0.34779728 -0.46493362  0.35569921 -0.40135478  0.31111064 -0.43250779  0.42047453  0.38671150  0.23262713 -0.43388950 -0.13866921 -0.26894318  0.46445351 -0.30841413  0.28376557 -0.41085958 -0.05163914  0.48142603 -0.24482111 -0.37805136  0.11013416 -0.25356154 -0.47305747 -0.29834284 -0.47259591  0.37482358 -0.23087150  0.25641081 -0.47362554 -0.33387910  0.02447803 -0.31065506 -0.28808615 -0.10917864 -0.20148310 -0.46644435 -0.03131882 -0.27069251  0.43059442 -0.28795334 -0.19335591 -0.19627150 -0.04474907 -0.21651862  0.00758149 -0.24892899 -0.11561110  0.46746242 -0.25610956  0.15079504
 -0.03488285  0.77603852 -1.27424043  0.04180575  1.14611096  0.59073665 -1.12295363  0.55086664  1.79955934 -0.82795674 -0.73011254 -0.56984993  0.11374742  1.61318140 -1.51747163 -3.70684035 -1.81282885 -1.17819867 -0.15378912 -0.50778849  1.13783737  0.57453236 -1.88256455 -1.88530500  0.92971349 -0.19887990 -1.70169194 -0.29043902 -1.10068035  1.39830012  0.69256843 -1.72357713 -3.77903946 -2.33330603 -2.90443984 -3.20245576 -1.39099064 -0.24288299 -1.56927793 -2.50937034 -1.17754909  0.69571724  3.68921236  1.10502535  0.10680699  0.07698722  1.62589141  3.12723091  1.35546587 -0.22619993  0.91148261  2.49352524  2.72412592  2.32050681  2.34721966  2.32863476  1.00670993  1.56278426  2.60003867  2.78162721  1.86394627  0.49186486 -1.36717675 -0.69847899  0.62567766  0.58020868  0.51001465  1.26587311  0.58388600  0.01980302  0.55635030 -0.21501926 -1.54354386 -0.88923461 -0.60420430 -0.70882799 -1.96474052 -2.48352561 -3.08579282 -3.79521013 -4.50746922 -3.93899275 -4.36951863 -4.50665271 -4.81519523 -4.34353845 -3.38946641 -1.60693106  0.10336696  0.58601018 -0.18357083  1.29948468 -0.82688202 -0.82198980 -0.17207082  2.71912113 -0.28678871 -5.87279840 -5.84516751 -0.19436791 -4.59717303  2.03764744 -4.89085623 -3.25277204  4.72164325  5.06532947  2.55436272  0.39787772  0.99077655  2.66560238  2.35601367  4.12826745  4.11243623  2.76527072  0.90897140 -0.24761954 -0.03626757 -0.40709451 -1.05097996 -1.05461540 -0.95692557 -0.77738323  0.20745845  0.79664838  0.30559720  0.39334336  0.68197180  1.14147237  1.29603561  1.46562373  1.54804770  1.06266832  1.53911520  1.86716356  0.82264801  0.95022013  1.73758290  0.95902871  0.68026842  0.68349171  0.91304946  1.34953247  2.40816142  1.90472226  2.09250462  2.52181825  1.55983826  1.61800413  3.55112008  3.91563860  2.77403685  0.93471252 -0.45375968  0.31681857  1.90834677  1.33874935  0.46008698 -0.37519240 -0.42741545  2.08978623  1.84314877 -2.28275717 -1.93031558 -2.26808799 -2.25189164 -1.47900245  1.83519238  1.80664470 -0.55727600 -2.30346152 -3.60929145 -4.66201692 -3.59195147 -0.76892283  1.43788823  1.69253132 -1.51492595 -0.29853435 -0.78885926  1.27321909 -0.25462955 -0.50865498 -0.88264169 -0.24215642 -0.57233574 -1.47429335  0.38243598 -0.52697172  1.45483729 -0.20631463  0.17130686  2.21296163  0.92022433 -1.22428772  0.13894450  0.18784323 -0.29166859  1.64267304  0.15853213  0.46384315  0.36530367
  1.22883074  0.36341311 -0.00489821 -1.08710004  2.38696957  3.01111904  0.42350223 -4.97520355 -2.63016531  6.40198282  2.10117410 -3.20918803 -4.70900286 -0.78166699  3.55662345  1.41815907  1.28172123  0.84320721 -4.22452776 -0.61207370  3.86187897 -2.59160707 -2.77285858  0.04668807  2.69174205  0.41106376 -4.60482224  0.39505651  3.93924075  2.33969587  3.13924217  1.13377425 -2.20666139 -5.14311202  0.78685548  2.93373266  2.91567473  1.81410521 -2.07092003 -3.15048411 -0.46415049  3.60327288  2.11885184  2.46291865  1.90130412  1.91096477  2.39664391  1.22204807  0.80151574  1.97027649  3.06829407 -0.21374992  1.53698190  2.98724865  2.61084087 -0.85369184 -2.14896960 -0.57251589  2.41165452 -0.02155243 -1.19477427 -1.95012624 -1.44892869 -3.57591535 -1.89353970 -1.70060694 -0.43138451 -0.40128896 -0.46029504  1.19585611  0.82718974  0.63041877  0.92127183 -1.00005676 -1.37274585 -3.98705876 -0.38630847  0.95625877  0.22309599  0.10003281  0.60131572  0.95807800  0.30626677  0.98164277  0.86850228  0.90152733  1.37584740  2.09070427  2.03976942  1.86468027  0.49804977 -0.26331020 -0.88746830  0.34168763  0.28103306 -0.31455929  0.46065122 -1.29253205 -0.73396391  0.65849657  1.13316914 -0.41797282  2.15903963 -0.56697860  0.50402770  0.31422208 -1.17884587  0.46898875  0.01570143  0.52396402  0.61052343  1.76305405  1.04763535  0.71012930 -0.19176639  0.08956433 -0.15677754 -0.50409363 -0.75937005 -0.97004296 -0.30943759 -0.57144835 -0.79093028 -3.02882189 -0.21807861 -0.54996117  0.31157106 -0.96350036 -0.06933029 -2.19021269 -3.41769881  0.83847781  0.21544790  0.09246085  1.15037616  2.25702622 -2.63968200 -4.61493543  1.29948406  2.63583864 -5.26339792 -1.19363542  0.35936116  2.25762339 -1.02521039 -4.94649088 -0.36117600  0.90043598  3.57570669  2.55723541 -1.85365062 -3.57392861 -5.03216933  1.58092330  2.19999903  1.07338964 -4.71367176  0.57762791  1.59187309 -3.90514333  0.48390667  1.89069078  0.42251154 -3.34406270 -4.30134051  3.45738722  0.99494660 -0.82592867  2.18642510  4.35562884 -0.63872690 -5.13035011 -1.45901681  4.41294183  3.17530459  0.72198705 -2.29831036 -6.49548035 -0.25137094  2.82556481  1.18460982 -4.81066276  0.17663517  4.11315681 -1.49427975 -1.62252432 -1.01958850  1.38345398  2.21631091 -2.05500285 -1.21571420  1.08781072  4.29634224 -2.83184928 -3.21729441 -2.71388686 -3.57202924  1.28723691  2.77089453 -1.27038045  0.96309065
  1.00712307  0.99572679  1.72659986  1.71825151  1.26317053  0.24567936  1.37986060 -0.30567099 -0.09520744  0.44224583  0.48090195  0.01189188 -0.08289136  0.28030653 -0.81876917  0.93470739  1.17194277 -0.44164962  0.02264563 -1.20242003 -0.63953339 -0.26493157  0.70010222  1.72113439 -1.07168757  1.31740507 -0.17950043  0.39023861 -0.78003061  0.36769140  0.87236718 -0.08201034  0.93462436 -0.97602736  1.57974661 -0.77405090  0.70982452  1.04881370 -2.25009252  1.01070773 -2.28745843  0.37168164 -0.76328790 -0.00574279  0.03262730 -4.45557043 -2.45166587  0.99593150 -0.00297216 -2.35188195  0.07355219 -2.77529889 -1.67774400 -0.03961901 -2.03379955 -1.37784466 -1.76139253 -0.33041653 -4.82775588 -2.76021473 -2.47203924  0.35556926 -1.17826940 -4.17406819 -0.47401322 -1.71470847 -1.89797650 -1.26507533 -0.79989117 -0.38154730 -0.46140405 -2.68279515 -2.89683775 -1.92766393  1.71431283 -3.47186790 -0.34049909  1.98398288  2.09923422  1.35601763  0.01867774 -0.26756494 -0.29247765 -0.96117929 -2.23418683 -2.66159515 -2.92972515 -3.14986715 -3.76391825 -2.86240073 -3.36274211 -3.56509096 -3.73640512 -2.65084245 -1.68164672 -1.40677873 -2.52854537 -4.72052508 -5.04771981 -4.18752557 -0.83750401  6.48310033  4.03127123  8.00170201  4.77709274  4.38003075  3.45345708  1.92186208  0.32745008 -0.39900211 -0.59033873 -0.43969864 -1.43096732 -1.19461587 -1.51349427 -1.89110382 -1.47951952 -1.64635267 -1.89926827 -1.81913017 -1.99534759 -2.31085820 -1.19867981  3.33626530 -0.23606987  0.07358008 -2.03251449  0.74286324  2.41114470  3.58279007  2.65059395 -1.18306768  2.23888488  2.34433914  0.87405301  2.10379270  4.51808681  2.60052702  0.97136923  3.46975440  2.95822031  2.18853672  0.98317561  3.45862068  0.99723203  0.95811216  0.93719286 -0.33630820  2.59759200  0.19989375 -0.67840467 -1.08461240 -0.86531316 -4.68832158 -3.37934358 -2.76700061  0.28781355 -0.17637482 -2.87422604 -3.38348093 -1.98243656 -2.26056281 -5.49270176 -6.24327394 -5.52793232 -1.33141381 -1.23746752  0.86052995  0.99196729  0.61576090  0.04460395 -0.28520823 -1.55420202  1.41416300  6.86860592  7.19279754  4.06473063  1.48439521  3.24162770  2.52669714  0.46368577  1.84362923  2.90410872  4.46936524  0.77101223  2.94970225  3.15699464  2.31435659  2.16936991  3.28407108  2.47093676  2.84884181  2.34626384  1.61126504  1.79438256  2.75044954  2.64706768  3.23160596  1.94485708  0.56559167  0.84707116
 -0.30751567  0.24967256 -0.32577317  0.16039412  0.14632845  0.45255854  0.49725492  0.34448786  0.29659115  0.35240405  0.32583296 -0.10794102  0.33456979  0.44064744 -0.33814258  0.13501855 -0.36122244  0.16501252 -0.41737290  0.03518077 -0.42839836  0.19559287  0.18941046 -0.40851890 -0.07671088  0.17645009 -0.08831149  0.09926718  0.33967447 -0.09087331 -0.12874032 -0.47652133 -0.34973799  0.03705710  0.17578950  0.28884084 -0.01780034  0.16578174  0.12606814 -0.22859478  0.01045221 -0.05623399  0.15480127 -0.16412992 -0.12534434  0.30629713  0.46011272  0.00252954 -0.03960242 -0.46823388 -0.47328907  0.02085521  0.21612981  0.20480556  0.10111214 -0.37177157 -0.13001115  0.50140268  0.21599895 -0.30183753 -0.10092993 -0.42421495 -0.28993492  0.03766346  0.10121289  0.37420760 -0.18512179 -0.42823750  0.02832846  0.42926658 -0.16861226 -0.47305355 -0.13882868  0.47427831 -0.14908362  0.22387040  0.26879557 -0.20078193 -0.28540204 -0.28272729 -0.18103230 -0.27072138  0.22620643 -0.47681637  0.42216389 -0.18464053 -0.36063958 -0.21999110 -0.19545837  0.34294547 -0.03458784  0.19048291  0.40537209  0.16209566 -0.28526926 -0.00671116  0.02325692  0.01687232  0.05273005 -0.45935840 -0.06306990  0.37353021 -0.44491514  0.28416191  0.33572225 -0.10484879 -0.00226902  0.09446122  0.18451225  0.20258851  0.30201637  0.49379243  0.42209019  0.01820393  0.50665313  0.33369611  0.32290149 -0.36467987 -0.39684849 -0.38294307  0.46822004  0.05903997  0.29849907  0.36512617 -0.28675856  0.50588163 -0.14853408  0.22993125  0.01647423  0.39795929  0.26326108  0.44458963  0.26417610  0.31195782  0.22240116  0.09326185 -0.29988612 -0.28730293 -0.32024195  0.37612056  0.40623823  0.47225539  0.35982340  0.31787267 -0.02026757  0.35559052  0.14059203 -0.20838459  0.47979989  0.23259641 -0.10251665  0.43683189 -0.21960716 -0.31530432  0.29059092 -0.01775288 -0.32085202 -0.36937412 -0.29931743  0.18405783 -0.48304688  0.45228126  0.11697731  0.26943032  0.25251319 -0.17232590 -0.14902405  0.44089840  0.02857814  0.01888588  0.30510498 -0.07707804 -0.02077853  0.15306538 -0.27108661  0.44702297 -0.00336303  0.35744633 -0.27337919 -0.03551767  0.07809231  0.11212872 -0.11067101  0.34652188  0.28486181 -0.33199103 -0.18315158  0.45218670 -0.21312817  0.00579191  0.12443858 -0.20811407 -0.05407117 -0.27097859 -0.45138247 -0.31438304  0.04378670 -0.11318681 -0.38609765 -0.44008681  0.39335696
  0.30037741  0.27989046 -0.43482450 -0.30100357  0.25908938 -0.42924880 -0.01519051  0.26776657 -0.28651721 -0.30541100  0.28601752 -0.20472604 -0.08997440 -0.27909356 -0.40578068  0.16466980  0.62928952  0.34375726 -0.46068736 -0.17411536 -0.45453871 -0.76726884 -0.98868149 -0.10123003  0.47323835  0.43639374  0.00479733  1.11095830  0.68754361  0.53574699  1.26969429  0.49738319  0.80841817  0.60042701  0.75708484  0.41418176  0.27217012  0.34880126  0.61833198 -0.45221531  0.28027728  0.33879880 -0.68632984 -0.44341844  0.42900737  0.46671795 -0.18314626 -0.28558321  0.25204212  0.12460796  0.48531707 -0.06339376 -0.25620126 -0.22470562  0.66313922  0.02543316 -0.34123548 -0.63199578 -0.00606696  0.16503085 -0.33299233 -0.16095353 -0.71323440  0.08971097 -0.17101926 -0.92975229 -0.60241874 -0.68349798 -0.03062962 -0.64135944 -0.57143539 -0.42657217 -0.34348350 -0.07485483  0.21245205 -0.04097055  0.30568050  0.82648819  0.41233479  0.31371441  0.40795237  0.15718102  0.19423235 -0.15731328 -0.85039379 -1.30343146 -1.70469631 -0.12219912 -0.04460598 -0.21767724 -0.20749583  0.21125205  0.05578119 -0.06261298 -0.01437099 -0.68762124 -0.14764791 -0.99079345 -1.20249165  2.12482674  4.34769371  1.24285921 -1.98855125 -1.64748545 -1.16327148 -0.44271999 -0.16967266  0.16145715  0.07154532  0.30307752  0.35326468 -0.12626701 -0.65007700 -0.43026296 -0.54464155 -0.63882501 -0.25801955 -0.25827415  0.01996613  0.99167662  0.21794342  0.88746832  0.87272262  0.49344504  0.26181020  0.27123117  0.39434009  0.49434241 -0.09664167 -0.50342531 -0.20371483  0.15039795  0.19943777 -0.77399756 -0.44791476  0.30606515 -0.05173391 -0.73042052 -0.24052084  0.22218344 -0.61098648 -0.49345577 -0.20493890  0.02634247 -0.08859702 -0.10112250  0.20145655 -0.79148117  0.09026112 -0.47867517  0.23983030  0.02233845 -0.06827090 -0.20598907 -0.58160200  0.68228894  0.68504779  0.44196467  0.42493479 -0.12812405  0.58362210  0.06635550  0.95881252  0.79634769  0.91547695  1.07615111  1.92085276  1.32948887  1.03815138  0.28703349 -0.34467450 -0.76173417 -0.94290056 -0.77948474 -0.39460677 -0.41906338 -0.82290628  0.24212943  0.23344255  0.28058938  0.56943772  0.12345081 -0.24900109  0.11638652 -0.30304912 -0.04404462 -0.20376643 -0.22976474 -0.12009400 -0.14999125 -0.20486931 -0.04634481 -0.03141436 -0.43416368  0.14093249 -0.52306406 -0.11451060 -0.29175114 -0.31599166 -0.05791610 -0.29140223
 -0.31950129  0.21584208 -2.33406338  1.45292305 -1.44180939 -0.54644044 -1.30587985  0.28381780 -1.54510937 -0.72492964  0.92912020 -2.96386873  0.42391004 -0.85602935  0.30194735 -0.76248083  0.50912541 -0.33052554 -0.78544851 -1.35755453 -0.32334195 -1.26404063  1.10112605 -0.78206843 -2.32211538 -0.11005728 -1.06616161  0.88682662 -1.45512140 -0.92197082  0.44176327  0.51742377 -0.11911852  2.71046107 -2.42009429 -3.14025134 -0.82753721  1.46627467 -0.78511085 -0.50531410 -1.11903709  0.13257515  1.00811907 -0.52110024  0.79318578 -0.17015646 -1.96873398  0.13748891  1.04256403  0.20785313 -0.17200223  2.50772684 -0.74655079 -0.05713719 -1.69569077 -0.89995825 -0.17045824 -0.66981000 -0.44025664 -2.40271339 -0.80168386  0.62384651 -1.62930692  1.01054299  0.38032137 -0.36852162 -0.95482627  0.60407762 -0.27183389 -1.26938580  4.31739316  2.26002517  0.27773211  2.76687072  1.91985701  2.16492191  1.53045047  1.64991224  1.18815025  2.06636037  2.18190278  1.75495079  1.84857955  2.74095128  3.13838626  3.51998565  3.06057008  3.42709953  4.51738155  2.89630306  0.32823509  0.03215104  1.62772784  0.78483253  1.42417219 -1.70247922 -0.63305391 -2.03982779  0.70762621 -0.05540991 -5.27978290  2.00170966 -0.57272456  2.41547943  3.29164236  2.16397018 -0.33033337 -1.02425649  0.57038521 -0.32839865 -0.88412665  0.44938935  1.89545236  1.51400708  1.11860012  1.11817975  0.65428115  0.56752302  0.61802466  0.12326012  0.47761725  0.47349868  0.00455340  0.45877425  0.60011651  1.68570516 -0.64069340  0.51865002 -0.51750955  0.79131773  0.51930592 -0.56133051  1.46889663  1.11089383  0.98844428  1.05835843 -2.28073956 -1.83051269 -2.95121620 -1.34227383 -1.50509317 -1.53173497  1.89899046 -0.25068242 -1.86335304  0.82672168 -0.71539149 -0.60738478  1.70858153 -1.56443229 -1.76654137 -2.74811129 -1.39209758  0.04890121  0.16137864 -0.91240374  0.38625804  0.32271429 -0.44116901 -0.66205600  1.08710380 -1.79246000 -0.95176211  1.41579613 -0.83478497 -2.19864759 -0.07504631  0.12448062  0.13658023 -1.46730996 -0.82583396 -1.34733964 -0.03696156  1.04428166 -0.77213825 -0.65428816 -2.74298097  2.39041679 -2.43649368 -0.22151614 -0.14049080 -0.76241080 -0.46299920 -0.07580450 -0.46498084 -0.59519593 -1.95210230 -0.74237085  0.04277081 -1.56623799  0.26690755 -0.67077219 -0.20785579 -1.93351290  0.18336085 -0.50533839 -1.41548969 -0.37169636 -0.78924000 -0.12268802 -0.22429287
 -0.04780205 -0.40746277  0.16783699 -0.35523098 -0.35961692  0.55957250 -0.32268431 -0.53349024  0.30703809 -0.28551975  0.07613556 -0.17541746  0.02821175 -0.08069693  0.63886908  0.12046687 -0.36956611 -0.52895062  0.24248035  0.06020665  0.45307282  0.39342035 -0.02661122  1.07133856  0.17214391 -0.70896733 -0.45778749  0.39201175  0.83433685 -0.03363419 -0.53852773 -0.39860477 -0.48850141  1.56910567 -0.05747389  0.44274044  0.24349592  0.25759351  0.42209353 -1.38205326  1.14717025 -0.27495483 -0.75023166 -0.73469122 -0.14168400  0.59150532  0.38389170 -1.02857720 -0.32083238  0.46060555  0.07012047 -0.20858622 -0.48052353  0.40015963  0.93263327 -0.56146199 -0.45403281 -0.58298404 -1.30389399 -0.25183576  0.00156291  0.07535977 -0.90473098 -0.53439517 -0.71226519 -0.81195391 -0.29596325 -0.43617813 -0.41848892 -0.20858004 -0.60411836 -0.41112091 -0.10371517  0.72250637  0.92059274  0.75830691  1.42886705  1.58312090  1.38885340  1.72911170  1.55815783  2.03891924  1.36514337  1.74894670  1.17889652  0.99698545  0.12831709  0.17569438 -0.12869537 -2.06386421 -2.32094055 -1.36574867 -0.39116973 -0.20785418 -0.07938530  0.33661951 -0.08769336  0.79671218 -1.38663819  2.97318024  2.80186227 -3.10839122 -1.20421825 -0.67101939 -1.18726252 -0.46423955 -0.57186541 -0.30022973 -0.49794137 -1.68239835 -3.68600821 -2.61931976 -0.79624868 -0.57512715 -0.19671765  0.20163034  0.60877923  1.51158374  1.92384454  2.35779313  1.69345713  2.62657396  2.67901899  1.31576400  1.57317815  1.87607546  2.38675883  1.64306175  1.04516552  0.38642449  0.74661685  0.95491180 -0.19809311 -2.40507909  0.07392584 -0.51427052 -0.44754256 -1.25015978 -0.93845784 -1.51517484 -0.10486265 -1.11915646 -1.11213001 -0.13004991  0.71040408 -0.53381657 -0.80802519 -1.04556216  0.58400146  0.36375562  0.14882687 -0.83197998 -0.02571865  1.01654269 -0.77087703 -0.24849217 -0.41179162  0.74599733 -0.38373818  0.23213754 -0.56978517  0.38636514  0.30084069  0.70319307 -0.02980240 -1.26688790  0.20742831 -0.27855196  0.30285557 -0.16184656  0.70515784 -0.17640378  0.12563176 -0.02710557 -0.55560647 -0.05721298  0.10826022 -0.15497839 -0.28200956 -0.59140246  0.46337567 -0.94520206  0.55808842 -0.42234190 -0.10098253  0.74243260 -0.61299036 -0.06622440  0.72731137 -1.52097087 -0.33588766 -0.23504396 -0.36764957 -0.06940740 -0.98229212 -0.17669968  0.28170407 -0.80637925  0.14210953 -0.52726465  0.12476639
